FILEHEADER = {
  magic: lCRF
  size: 727996
  type: FOMC
  version: 100
  num_features: 0
  num_labels: 23
  num_attrs: 1196
  off_features: 0x30
  off_labels: 0x86EE8
  off_attrs: 0x879D1
  off_labelrefs: 0x945C8
  off_attrrefs: 0x94880
}

LABELS = {
      0: CNJ
      1: PN
      2: V
      3: ADJ
      4: ,
      5: N
      6: 
      7: —
      8: POST
      9: .
     10: !
     11: ?
     12: HELPVERB
     13: ADV
     14: NUM
     15: ADVVNEG
     16: ;
     17: –
     18: «
     19: »
     20: (
     21: )
     22: ..
}

ATTRIBUTES = {
      0: isupper_False
      1: istitle_True
      2: suffix3_кин
      3: isdigit_False
      4: count_5
      5: capital_False
      6: nf_ләкин
      7: suffix2_ин
      8: istitle_False
      9: suffix3_зен
     10: count_4
     11: capital_True
     12: nf_үз
     13: suffix2_ен
     14: suffix3_бу
     15: count_2
     16: nf_бу
     17: suffix2_бу
     18: count_6
     19: nf_мөмкин
     20: suffix3_ган
     21: count_8
     22: nf_бул
     23: suffix2_ан
     24: suffix3_әгә
     25: count_7
     26: nf_нәрсә
     27: suffix2_гә
     28: suffix3_бүр
     29: nf_мәҗбүр
     30: suffix2_үр
     31: suffix3_итә
     32: count_3
     33: nf_ит
     34: suffix2_тә
     35: suffix3_ады
     36: nf_ал
     37: suffix2_ды
     38: suffix3_,
     39: count_1
     40: nf_,
     41: suffix2_,
     42: suffix3_яле
     43: nf_кинаяле
     44: suffix2_ле
     45: suffix3_выш
     46: nf_тавыш
     47: suffix2_ыш
     48: suffix3_лән
     49: nf_белән
     50: suffix2_ән
     51: suffix3_
     52: nf_
     53: suffix2_
     54: suffix3_—
     55: nf_—
     56: suffix2_—
     57: suffix3_уың
     58: nf_табын
     59: suffix2_ың
     60: suffix3_чен
     61: nf_өчен
     62: suffix3_мәт
     63: nf_рәхмәт
     64: suffix2_әт
     65: suffix3_иде
     66: nf_ди
     67: suffix2_де
     68: suffix3_.
     69: nf_.
     70: suffix2_.
     71: suffix3_Тик
     72: nf_тик
     73: suffix2_ик
     74: suffix3_ысы
     75: suffix2_сы
     76: suffix3_бар
     77: nf_бар
     78: suffix2_ар
     79: suffix3_зең
     80: suffix2_ең
     81: suffix3_ның
     82: nf_алла
     83: suffix3_аны
     84: nf_дошман
     85: suffix2_ны
     86: suffix3_кын
     87: nf_якын
     88: suffix2_ын
     89: suffix3_ткә
     90: count_11
     91: nf_мөнәсәбәт
     92: suffix2_кә
     93: suffix3_ләр
     94: nf_кер
     95: suffix2_әр
     96: suffix3_ине
     97: nf_син
     98: suffix2_не
     99: suffix3_нар
    100: count_12
    101: nf_котырт
    102: suffix3_!
    103: nf_!
    104: suffix2_!
    105: suffix3_икә
    106: nf_сөембикә
    107: suffix3_рәп
    108: nf_чәчрә
    109: suffix2_әп
    110: suffix3_рып
    111: nf_тор
    112: suffix2_ып
    113: suffix3_гып
    114: nf_чык
    115: suffix3_кче
    116: nf_кит
    117: suffix2_че
    118: suffix3_лды
    119: suffix3_мма
    120: nf_әмма
    121: suffix2_ма
    122: suffix3_рек
    123: nf_ирек
    124: suffix2_ек
    125: nf_ул
    126: suffix3_ына
    127: nf_юл
    128: suffix2_на
    129: suffix3_ылы
    130: nf_аркылы
    131: suffix2_лы
    132: suffix3_ште
    133: nf_төш
    134: suffix2_те
    135: suffix3_әйт
    136: nf_әйт
    137: suffix2_йт
    138: suffix3_иев
    139: nf_шәвәлиев
    140: suffix2_ев
    141: suffix3_нең
    142: nf_сез
    143: suffix3_ада
    144: nf_ара
    145: suffix2_да
    146: suffix3_ни
    147: nf_ни
    148: suffix2_ни
    149: suffix3_?
    150: nf_?
    151: suffix2_?
    152: suffix3_Мин
    153: nf_мин
    154: suffix3_дым
    155: nf_кыйна
    156: suffix2_ым
    157: suffix3_чек
    158: nf_ничек
    159: suffix3_ком
    160: nf_райком
    161: suffix2_ом
    162: suffix3_ена
    163: nf_секретарен
    164: suffix3_кул
    165: nf_кул
    166: suffix2_ул
    167: suffix3_әрә
    168: nf_күтәр
    169: suffix2_рә
    170: suffix3_дың
    171: suffix3_лар
    172: nf_алар
    173: suffix3_ндә
    174: suffix2_дә
    175: suffix3_кәй
    176: nf_бәләкәй
    177: suffix2_әй
    178: suffix3_едә
    179: nf_кеше
    180: suffix3_еге
    181: nf_әлеге
    182: suffix2_ге
    183: suffix3_су
    184: nf_су
    185: suffix2_су
    186: suffix3_гез
    187: nf_диңгез
    188: suffix2_ез
    189: suffix3_сен
    190: count_9
    191: nf_стихия
    192: suffix3_гын
    193: nf_тагын
    194: suffix3_да
    195: nf_да
    196: count_10
    197: nf_көчәйт
    198: nf_тирәнәйт
    199: nf_и
    200: nf_әти
    201: suffix3_нге
    202: nf_төнге
    203: suffix3_ыда
    204: nf_караңгы
    205: suffix3_чма
    206: nf_лычма
    207: nf_чылан
    208: suffix3_ент
    209: nf_брезент
    210: suffix2_нт
    211: suffix3_нан
    212: nf_кожан
    213: suffix3_тып
    214: nf_кайт
    215: suffix3_рүе
    216: nf_керү
    217: suffix2_үе
    218: suffix3_гел
    219: nf_гел
    220: suffix2_ел
    221: suffix3_күз
    222: nf_күз
    223: suffix2_үз
    224: suffix3_нда
    225: suffix3_син
    226: nf_керосин
    227: suffix3_асы
    228: nf_лампа
    229: suffix3_рән
    230: nf_сүрән
    231: suffix3_енә
    232: nf_генә
    233: suffix2_нә
    234: nf_яктырт
    235: nf_кечкенә
    236: suffix3_йдә
    237: nf_өй
    238: suffix3_кыт
    239: nf_вакыт
    240: suffix2_ыт
    241: suffix3_дан
    242: nf_яңа
    243: suffix3_ймә
    244: nf_көй
    245: suffix2_мә
    246: suffix3_һәм
    247: nf_һәм
    248: suffix2_әм
    249: suffix3_юеш
    250: nf_юеш
    251: suffix2_еш
    252: suffix3_жан
    253: suffix3_исе
    254: nf_ис
    255: suffix2_се
    256: suffix3_ала
    257: nf_тара
    258: suffix2_ла
    259: suffix3_мим
    260: nf_бел
    261: suffix2_им
    262: suffix3_згә
    263: suffix3_лки
    264: nf_бәлки
    265: suffix2_ки
    266: nf_болар
    267: suffix3_зык
    268: nf_кызык
    269: suffix2_ык
    270: suffix3_та
    271: nf_та
    272: suffix2_та
    273: suffix3_дер
    274: nf_түгел
    275: suffix2_ер
    276: suffix3_мин
    277: nf_шәхес
    278: count_13
    279: nf_характер
    280: suffix3_шын
    281: nf_баш
    282: suffix3_җеп
    283: nf_җеп
    284: suffix2_еп
    285: suffix3_чын
    286: nf_очын
    287: suffix3_әнә
    288: nf_әнә
    289: suffix3_рда
    290: nf_шулар
    291: suffix3_рәм
    292: nf_күр
    293: suffix3_дән
    294: suffix3_дә
    295: nf_дә
    296: suffix3_рәк
    297: nf_бик
    298: suffix2_әк
    299: suffix3_зем
    300: suffix2_ем
    301: suffix3_сүз
    302: nf_сүз
    303: suffix3_теп
    304: nf_бирү
    305: suffix3_ыен
    306: nf_кый
    307: nf_нинди
    308: suffix3_чкә
    309: nf_нечкә
    310: suffix3_рле
    311: nf_серле
    312: suffix3_неш
    313: nf_бәйлә
    314: suffix3_оям
    315: nf_той
    316: suffix2_ям
    317: suffix3_1
    318: isdigit_True
    319: nf_1
    320: suffix2_1
    321: suffix3_и
    322: suffix2_и
    323: nf_без
    324: nf_шәригат
    325: suffix3_икъ
    326: nf_муафикъ
    327: suffix2_къ
    328: suffix3_штә
    329: nf_рәвеш
    330: suffix3_хәл
    331: nf_хәл
    332: suffix2_әл
    333: suffix3_әге
    334: nf_ител
    335: nf_очен
    336: suffix3_чак
    337: suffix2_ак
    338: count_16
    339: nf_мәбгусләр
    340: nf_дин
    341: suffix3_дар
    342: nf_хәбәрдар
    343: suffix3_ары
    344: nf_булмак
    345: suffix2_ры
    346: nf_лазем
    347: suffix3_ать
    348: nf_фәкать
    349: suffix2_ть
    350: nf_әфәнде
    351: suffix3_уны
    352: nf_шу
    353: nf_хәтер
    354: suffix3_лым
    355: nf_чыгармаял
    356: suffix3_ки
    357: nf_ки
    358: suffix3_без
    359: nf_мәмләкәт
    360: suffix3_рус
    361: nf_рус
    362: suffix2_ус
    363: nf_лиса
    364: suffix3_илә
    365: nf_илә
    366: suffix2_лә
    367: suffix3_бәр
    368: nf_бәрабәр
    369: nf_заман
    370: suffix3_вәл
    371: nf_әхвәл
    372: suffix3_вә
    373: nf_вә
    374: suffix2_вә
    375: nf_кидеш
    376: suffix3_ыйф
    377: nf_вакыйф
    378: suffix2_йф
    379: count_15
    380: suffix3_зам
    381: nf_низам
    382: suffix2_ам
    383: nf_кавани
    384: suffix3_шна
    385: nf_аш
    386: suffix3_мак
    387: suffix3_үме
    388: nf_лөзүме
    389: suffix2_ме
    390: nf_һәммә
    391: nf_мәгълүмдер
    392: suffix3_рем
    393: suffix3_гәр
    394: nf_әгәр
    395: nf_мөхтәрәм
    396: suffix3_быз
    397: nf_имам
    398: suffix2_ыз
    399: nf_мөгтәбәр
    400: nf_хәзрәт
    401: nf_ар
    402: suffix3_йлә
    403: suffix3_рлы
    404: nf_икътидарлы
    405: nf_зат
    406: suffix3_лса
    407: suffix2_са
    408: suffix3_ият
    409: nf_мәгальмәмнүният
    410: suffix2_ят
    411: suffix3_абә
    412: nf_интихабә
    413: suffix2_бә
    414: suffix3_мез
    415: nf_хазермез
    416: suffix3_дин
    417: nf_милләт
    418: suffix3_әре
    419: nf_хезмәт
    420: suffix2_ре
    421: nf_сәбкать
    422: suffix3_меш
    423: nf_итмеш
    424: suffix3_дил
    425: nf_могтәдил
    426: suffix2_ил
    427: nf_фикер
    428: suffix3_зны
    429: count_14
    430: nf_зыялы
    431: nf_сайлаячак
    432: suffix3_сак
    433: nf_улсак
    434: suffix3_кри
    435: nf_фикри
    436: suffix2_ри
    437: suffix3_әмә
    438: nf_гаҗизанә
    439: suffix3_үрә
    440: suffix3_аһа
    441: nf_даһа
    442: suffix2_һа
    443: suffix3_бәт
    444: nf_исабәт
    445: suffix3_мыз
    446: nf_улачак
    447: suffix3_нки
    448: nf_чөнки
    449: suffix3_дәс
    450: nf_мөкаддәс
    451: suffix2_әс
    452: suffix3_Бу
    453: suffix2_Бу
    454: suffix3_тор
    455: nf_оратор
    456: suffix2_ор
    457: nf_әхмәт
    458: suffix3_рый
    459: nf_нурый
    460: suffix2_ый
    461: suffix3_үзе
    462: suffix2_зе
    463: suffix3_рты
    464: nf_ярты
    465: suffix2_ты
    466: suffix3_ькә
    467: nf_сәгать
    468: suffix3_рды
    469: suffix3_Аңа
    470: suffix2_ңа
    471: nf_театр
    472: suffix3_бер
    473: nf_кайбер
    474: suffix3_нән
    475: nf_өлеш
    476: suffix3_бик
    477: suffix3_зак
    478: nf_озак
    479: suffix3_аты
    480: nf_кат
    481: nf_чап
    482: suffix3_Чит
    483: nf_чит
    484: suffix2_ит
    485: nf_кавем
    486: suffix3_сем
    487: nf_исем
    488: nf_мең
    489: suffix3_тык
    490: nf_артык
    491: suffix3_рам
    492: nf_урам
    493: nf_мәйдан
    494: suffix3_;
    495: nf_;
    496: suffix2_;
    497: suffix3_неп
    498: nf_нәфрәтлән
    499: suffix3_лык
    500: nf_сатлык
    501: suffix3_вак
    502: nf_вак
    503: suffix3_рга
    504: nf_җан
    505: suffix2_га
    506: suffix3_тай
    507: nf_тораташ
    508: suffix2_ай
    509: nf_ка
    510: suffix3_ләп
    511: suffix3_зып
    512: nf_уз
    513: nf_черек
    514: suffix3_күл
    515: nf_күл
    516: suffix2_үл
    517: nf_як
    518: suffix3_гам
    519: nf_күк
    520: suffix3_иек
    521: nf_биек
    522: nf_халык
    523: nf_шрек
    524: suffix3_ыла
    525: nf_ат
    526: suffix3_кты
    527: nf_таң
    528: nf_анда
    529: suffix3_кым
    530: suffix3_кан
    531: nf_тот
    532: nf_байрак
    533: suffix3_нга
    534: suffix3_–
    535: nf_–
    536: suffix2_–
    537: suffix3_лле
    538: nf_аклы-яшелле
    539: nf_шатлык
    540: suffix3_кеп
    541: nf_бөрке
    542: nf_якла
    543: suffix3_мет
    544: nf_өмет
    545: suffix2_ет
    546: suffix3_уры
    547: nf_нур
    548: suffix3_кып
    549: nf_балкы
    550: suffix3_лде
    551: nf_чәчел
    552: nf_яктыр
    553: suffix3_тте
    554: suffix3_рым
    555: suffix3_нья
    556: nf_дөнья
    557: suffix2_ья
    558: suffix3_лен
    559: suffix3_яңа
    560: nf_аңла
    561: nf_кичер
    562: suffix3_сез
    563: suffix3_афу
    564: nf_гафу
    565: suffix2_фу
    566: suffix3_ит
    567: suffix3_ным
    568: nf_казан
    569: suffix3_ыйм
    570: nf_уйла
    571: suffix2_йм
    572: suffix3_сәң
    573: suffix2_әң
    574: suffix3_ил
    575: nf_ил
    576: nf_хакында
    577: nf_уйлан
    578: nf_монда
    579: suffix3_гән
    580: nf_сүрел
    581: suffix3_әле
    582: nf_әле
    583: nf_ялкын
    584: suffix3_оры
    585: nf_коры
    586: suffix3_кән
    587: nf_икән
    588: nf_халкы
    589: suffix3_рың
    590: nf_дар
    591: suffix3_ояш
    592: nf_кояш
    593: suffix2_яш
    594: suffix3_нде
    595: nf_инде
    596: suffix3_нми
    597: suffix2_ми
    598: nf_иде
    599: suffix3_Ул
    600: suffix2_Ул
    601: suffix3_куе
    602: nf_куе
    603: suffix2_уе
    604: nf_зәңгәр
    605: suffix3_скә
    606: nf_төс
    607: nf_тау
    608: nf_арт
    609: nf_яшерен
    610: suffix3_тен
    611: nf_бөтен
    612: suffix3_күк
    613: suffix2_үк
    614: suffix3_ылт
    615: nf_алсукызгылт
    616: suffix2_лт
    617: nf_сибел
    618: suffix3_Бер
    619: nf_бер
    620: suffix3_очы
    621: nf_оч
    622: suffix2_чы
    623: suffix3_тау
    624: suffix2_ау
    625: nf_сырт
    626: suffix3_геп
    627: nf_эләк
    628: nf_кал
    629: suffix3_нча
    630: nf_озынча
    631: suffix2_ча
    632: suffix3_лыт
    633: nf_болыт
    634: suffix3_нче
    635: nf_ике
    636: nf_кем
    637: suffix3_ут
    638: nf_ут
    639: suffix2_ут
    640: nf_төрт
    641: nf_җибәр
    642: suffix3_бек
    643: nf_кебек
    644: nf_кызар
    645: suffix3_дап
    646: nf_елкылд
    647: suffix2_ап
    648: suffix3_яна
    649: nf_яна
    650: nf_куыр
    651: suffix3_шул
    652: nf_шул
    653: suffix3_ук
    654: nf_ук
    655: suffix2_ук
    656: suffix3_тта
    657: nf_урта
    658: suffix3_ара
    659: nf_кара
    660: suffix2_ра
    661: suffix3_ргә
    662: nf_күмер
    663: nf_әйләнә
    664: nf_мен
    665: nf_кызгылт
    666: nf_әкрен
    667: nf_куер
    668: nf_үзгәр
    669: nf_итәк
    670: nf_кап
    671: nf_кисәк
    672: suffix3_ичә
    673: nf_сизел
    674: suffix2_чә
    675: suffix3_нып
    676: nf_ычкын
    677: suffix3_эри
    678: nf_эр
    679: suffix3_рәя
    680: nf_кечерәй
    681: suffix2_әя
    682: nf_башла
    683: nf_көт
    684: suffix3_ллә
    685: nf_әллә
    686: suffix3_аян
    687: nf_кая
    688: suffix2_ян
    689: suffix3_зыл
    690: nf_кызыл
    691: suffix2_ыл
    692: nf_карасу-зәңгәр
    693: suffix3_леп
    694: nf_кил
    695: suffix3_аен
    696: nf_саен
    697: nf_зурай
    698: nf_кыймылда
    699: nf_хәрәкәтлән
    700: nf_зәкиев
    701: suffix3_зан
    702: suffix3_тан
    703: nf_татарстан
    704: suffix3_сия
    705: nf_россия
    706: suffix2_ия
    707: suffix3_ясе
    708: nf_федерация
    709: nf_вуз
    710: suffix3_енү
    711: nf_фәнни-тикшеренү
    712: suffix2_нү
    713: nf_институт
    714: suffix3_тар
    715: nf_татар
    716: suffix3_еле
    717: nf_тел
    718: suffix3_еме
    719: nf_белем
    720: nf_буенча
    721: nf_эшлә
    722: suffix3_рне
    723: nf_галим
    724: suffix3_реп
    725: nf_берләштер
    726: suffix3_ген
    727: nf_эшчән
    728: nf_координациялә
    729: suffix3_агы
    730: suffix2_гы
    731: nf_роле
    732: suffix3_лап
    733: nf_ассызык
    734: suffix3_тәр
    735: nf_үтә
    736: suffix3_дем
    737: suffix3_рсә
    738: suffix2_сә
    739: suffix3_ул
    740: suffix3_мик
    741: nf_академик
    742: suffix3_әнү
    743: nf_өйрән
    744: suffix3_тын
    745: nf_объект
    746: nf_фән
    747: suffix3_ңгы
    748: nf_соңгы
    749: suffix3_рын
    750: suffix3_пкә
    751: nf_исәп
    752: suffix3_лып
    753: suffix3_дәр
    754: nf_кадәр
    755: suffix3_рак
    756: nf_ту
    757: nf_тараф
    758: nf_таныл
    759: suffix3_рен
    760: nf_эш
    761: suffix3_дип
    762: suffix2_ип
    763: nf_ата
    764: nf_гадәт
    765: suffix3_«
    766: nf_«
    767: suffix2_«
    768: nf_атал
    769: suffix3_ыру
    770: nf_булдыр
    771: suffix2_ру
    772: suffix3_һәр
    773: nf_һәр
    774: nf_тирән
    775: suffix3_ихы
    776: nf_тарих
    777: suffix2_хы
    778: nf_туплан
    779: suffix3_улы
    780: nf_тулы
    781: suffix3_ьми
    782: nf_гыйльми
    783: suffix3_әли
    784: nf_гамәли
    785: suffix2_ли
    786: nf_материал
    787: suffix3_нни
    788: nf_фәнни
    789: nf_тикшерен
    790: suffix3_бай
    791: nf_бай
    792: suffix3_әсе
    793: nf_тәҗрибә
    794: suffix3_улу
    795: suffix2_лу
    796: suffix3_арт
    797: nf_шарт
    798: suffix2_рт
    799: nf_әһәмият
    800: suffix3_ктә
    801: suffix3_кер
    802: suffix3_лек
    803: nf_йөрт
    804: suffix3_тик
    805: nf_лингвистик
    806: nf_кадр
    807: nf_җитәр
    808: suffix3_иеш
    809: nf_тиеш
    810: suffix3_»
    811: nf_»
    812: suffix2_»
    813: suffix3_Без
    814: suffix3_әдә
    815: nf_төрмә
    816: nf_туган
    817: suffix3_җат
    818: nf_иҗат
    819: suffix2_ат
    820: nf_ча-балану
    821: suffix3_зне
    822: suffix3_ота
    823: nf_йот
    824: nf_балык
    825: nf_коткар
    826: suffix3_алу
    827: nf_өчендер
    828: suffix3_(
    829: nf_(
    830: suffix2_(
    831: suffix3_)
    832: nf_)
    833: suffix2_)
    834: suffix3_зын
    835: nf_инкыйраз
    836: nf_тоткар
    837: nf_алын
    838: nf_әдип
    839: nf_кенә
    840: suffix3_кый
    841: nf_исхакый
    842: nf_иҗа-тын
    843: nf_әдәби-эстетик
    844: nf_караш
    845: nf_нигез
    846: nf_ят
    847: nf_концепция
    848: nf_ач
    849: suffix3_хси
    850: nf_шәхси
    851: suffix2_си
    852: suffix3_ләт
    853: suffix3_ыгы
    854: nf_азат
    855: suffix3_гыз
    856: nf_тыгыз
    857: suffix3_йле
    858: nf_бәй
    859: suffix3_луы
    860: suffix2_уы
    861: nf_хәт
    862: suffix3_рны
    863: nf_аер
    864: suffix3_рау
    865: nf_түгел-леге
    866: nf_билгелә
    867: nf_өч
    868: nf_чын
    869: nf_әдәбият
    870: suffix3_лли
    871: nf_милли
    872: nf_эчтә
    873: nf_сугарыл
    874: suffix3_реш
    875: nf_үсеш-үзгәреш
    876: nf_тенденция
    877: nf_миллилек
    878: suffix3_ибы
    879: nf_принцип
    880: suffix2_бы
    881: suffix3_ана
    882: nf_ассызыклан
    883: suffix3_рал
    884: nf_генерал
    885: suffix2_ал
    886: nf_утар
    887: nf_борынгы
    888: suffix3_үче
    889: nf_морза
    890: nf_нәсел
    891: nf_вәкил
    892: suffix3_ашу
    893: nf_очрашу
    894: suffix2_шу
    895: suffix3_еше
    896: nf_күрен
    897: suffix2_ше
    898: nf_бәхәс
    899: nf_батулла
    900: suffix3_зур
    901: nf_зур
    902: suffix2_ур
    903: suffix3_ышы
    904: nf_тап
    905: suffix2_шы
    906: suffix3_вәр
    907: nf_әнвәр
    908: nf_карыш
    909: suffix3_өек
    910: nf_бөек
    911: nf_тукай
    912: suffix3_аяк
    913: nf_аяк
    914: suffix2_як
    915: nf_табан
    916: nf_уй
    917: nf_җир
    918: nf_һәркем
    919: nf_йөрәк
    920: suffix3_зге
    921: nf_изге
    922: suffix3_амы
    923: suffix2_мы
    924: nf_чат
    925: suffix3_шта
    926: nf_туктал
    927: suffix3_ктр
    928: nf_электр
    929: suffix2_тр
    930: nf_станция
    931: suffix3_кәч
    932: nf_җит
    933: suffix2_әч
    934: nf_карт
    935: suffix3_тап
    936: nf_тукта
    937: nf_каршы
    938: nf_йорт
    939: nf_менә
    940: suffix3_кай
    941: nf_яшә
    942: suffix3_гар
    943: nf_болгар
    944: nf_номер
    945: suffix3_ушы
    946: nf_шушы
    947: suffix3_ула
    948: suffix3_88
    949: nf_88
    950: suffix2_88
    951: nf_нче
    952: nf_бүлмә
    953: nf_аннан
    954: suffix3_ыга
    955: nf_кырыгынчы
    956: suffix3_чте
    957: nf_күч
    958: nf_салкын
    959: suffix3_сын
    960: nf_папка
    961: suffix3_чып
    962: nf_кесә
    963: nf_карандаш
    964: suffix3_зли
    965: nf_эзлә
    966: suffix3_ыйк
    967: nf_садый
    968: suffix2_йк
    969: suffix3_лак
    970: nf_кулак
    971: suffix3_пле
    972: nf_гаеп
    973: suffix3_рчә
    974: nf_нуркәй
    975: suffix3_пне
    976: nf_тана
    977: suffix3_юк
    978: nf_юк
    979: suffix2_юк
    980: nf_билге
    981: suffix3_зер
    982: nf_хәзер
    983: suffix3_нем
    984: nf_өс
    985: suffix3_акт
    986: nf_акт
    987: suffix2_кт
    988: suffix3_яза
    989: nf_яз
    990: suffix2_за
    991: suffix3_сың
    992: suffix3_рта
    993: nf_утырт
    994: suffix3_аеп
    995: suffix3_үз
    996: nf_гаебең
    997: suffix3_кая
    998: nf_беркая
    999: suffix2_ая
   1000: suffix3_ача
   1001: nf_кач
   1002: suffix3_әев
   1003: nf_нуркәев
   1004: suffix3_бып
   1005: nf_тез
   1006: suffix3_уеп
   1007: nf_куй
   1008: nf_хәзерлән
   1009: nf_садыйк
   1010: nf_эне
   1011: suffix3_мда
   1012: suffix3_сыз
   1013: nf_уңай
   1014: suffix3_гач
   1015: suffix2_ач
   1016: nf_әйдә
   1017: suffix3_йгә
   1018: suffix3_тәл
   1019: nf_өстәл
   1020: nf_иркенлә
   1021: suffix3_рме
   1022: nf_егерме
   1023: suffix3_үрт
   1024: nf_дүрт
   1025: suffix3_ырь
   1026: nf_шигырь
   1027: suffix2_рь
   1028: nf_җыентык
   1029: suffix3_уар
   1030: nf_мемуар
   1031: suffix3_ика
   1032: nf_публицистика
   1033: suffix2_ка
   1034: nf_әсәр
   1035: nf_китап
   1036: suffix3_өч
   1037: suffix2_өч
   1038: suffix3_хнә
   1039: nf_сәхнә
   1040: nf_туплама
   1041: nf_шагыйрь
   1042: suffix3_ади
   1043: nf_иҗади
   1044: suffix2_ди
   1045: nf_лаборатория
   1046: suffix3_юын
   1047: nf_баю
   1048: nf_автор
   1049: suffix3_шны
   1050: nf_тормыш
   1051: suffix3_ату
   1052: nf_аңлау-аңлат
   1053: suffix2_ту
   1054: suffix3_тле
   1055: suffix3_әби
   1056: nf_әдәби
   1057: suffix2_би
   1058: nf_чара
   1059: suffix3_аба
   1060: suffix2_ба
   1061: suffix3_үен
   1062: nf_белү
   1063: nf_дәлиллә
   1064: suffix3_ора
   1065: suffix3_җар
   1066: nf_наҗар
   1067: suffix3_җми
   1068: nf_нәҗми
   1069: suffix3_яте
   1070: nf_ши
   1071: nf_патриотик
   1072: nf_романтика
   1073: nf_риторизм
   1074: suffix3_шеп
   1075: nf_читлә
   1076: suffix3_аль
   1077: nf_реаль
   1078: suffix2_ль
   1079: suffix3_лау
   1080: nf_күзалла
   1081: nf_бор
   1082: nf_сурәтлә
   1083: suffix3_кны
   1084: nf_иллюстратив
   1085: suffix3_изм
   1086: nf_психологизм
   1087: suffix2_зм
   1088: nf_фәлсәфи
   1089: suffix3_ыра
   1090: nf_алыштыр
   1091: suffix3_гый
   1092: nf_иҗтимагый
   1093: suffix3_раш
   1094: nf_яңгыра
   1095: suffix2_аш
   1096: suffix3_чәя
   1097: nf_көчәй
   1098: nf_каһарман
   1099: suffix3_ясы
   1100: nf_глобаль
   1101: suffix3_бка
   1102: nf_масштаб
   1103: suffix3_Кая
   1104: suffix3_ыма
   1105: nf_кыз
   1106: suffix3_әер
   1107: nf_хәер
   1108: suffix3_рим
   1109: nf_бир
   1110: nf_бала
   1111: suffix3_йды
   1112: nf_елмай
   1113: nf_әбекәен
   1114: nf_муен
   1115: nf_коч
   1116: suffix3_..
   1117: nf_..
   1118: suffix2_..
   1119: suffix3_Син
   1120: suffix3_тма
   1121: nf_оныт
   1122: suffix3_лам
   1123: nf_җәй
   1124: suffix3_кач
   1125: suffix3_айт
   1126: suffix3_яме
   1127: nf_яме
   1128: suffix3_рар
   1129: nf_яра
   1130: suffix3_кыз
   1131: suffix3_ска
   1132: nf_ас
   1133: suffix3_иеп
   1134: suffix3_һир
   1135: nf_таһир
   1136: suffix2_ир
   1137: nf_абый
   1138: suffix3_лми
   1139: suffix3_ану
   1140: nf_кораллан
   1141: suffix2_ну
   1142: nf_чыгым
   1143: nf_мөмкинлек
   1144: nf_күп
   1145: suffix3_уза
   1146: suffix3_аса
   1147: suffix3_тә
   1148: nf_тә
   1149: suffix3_Шта
   1150: nf_акш
   1151: nf_бүген
   1152: suffix3_әкъ
   1153: nf_нәкъ
   1154: suffix3_дый
   1155: nf_шундый
   1156: nf_мәсьәлә
   1157: suffix3_ягы
   1158: nf_бар-бар
   1159: suffix3_шма
   1160: nf_куш
   1161: nf_штат
   1162: nf_милитаристик
   1163: nf_максат
   1164: nf_акча
   1165: nf_арттыр
   1166: nf_котыл
   1167: suffix3_лкы
   1168: suffix2_кы
   1169: nf_алты
   1170: suffix3_биш
   1171: nf_биш
   1172: suffix2_иш
   1173: suffix3_шен
   1174: suffix3_кил
   1175: nf_тәшкил
   1176: suffix3_сеп
   1177: nf_үс
   1178: suffix3_мга
   1179: nf_империализм
   1180: suffix3_ршы
   1181: nf_көрәш
   1182: nf_хәрәкәт
   1183: nf_рәхим
   1184: nf_ая
   1185: suffix3_гыш
   1186: nf_сугыш
   1187: nf_тур
   1188: nf_кайвакыт
   1189: nf_янки
   1190: suffix3_чит
   1191: nf_каршылык
   1192: suffix3_кле
   1193: nf_үзенчәлек
   1194: nf_ясак
   1195: nf_түлә
}

TRANSITIONS = {
  (1) CNJ --> CNJ: 0.260010
  (1) CNJ --> PN: 0.903804
  (1) CNJ --> V: 0.249004
  (1) CNJ --> ADJ: 0.323148
  (1) CNJ --> ,: 0.428452
  (1) CNJ --> N: 0.009196
  (1) CNJ --> : 0.038944
  (1) CNJ --> POST: 0.085483
  (1) CNJ --> .: -0.402748
  (1) CNJ --> !: 0.002133
  (1) CNJ --> ADV: 0.493082
  (1) CNJ --> NUM: 0.195527
  (1) PN --> CNJ: 0.234463
  (1) PN --> PN: 0.718011
  (1) PN --> V: 0.105592
  (1) PN --> ADJ: -0.136926
  (1) PN --> ,: 0.200976
  (1) PN --> N: 0.472619
  (1) PN --> : 0.129835
  (1) PN --> POST: -0.056051
  (1) PN --> .: 0.296456
  (1) PN --> ?: 0.521747
  (1) PN --> NUM: 0.127322
  (1) PN --> ..: 0.374553
  (1) V --> CNJ: -0.092047
  (1) V --> PN: 0.030839
  (1) V --> V: 0.368414
  (1) V --> ADJ: 0.234989
  (1) V --> ,: 0.647567
  (1) V --> N: 0.024306
  (1) V --> : 0.304707
  (1) V --> POST: 0.493774
  (1) V --> .: 1.051412
  (1) V --> !: 0.563702
  (1) V --> ?: 0.023641
  (1) V --> HELPVERB: 0.884623
  (1) V --> ADVVNEG: 0.340873
  (1) V --> ;: 0.494901
  (1) V --> ..: 0.549093
  (1) ADJ --> CNJ: 0.133668
  (1) ADJ --> V: 0.766461
  (1) ADJ --> ADJ: 0.057614
  (1) ADJ --> ,: 0.387492
  (1) ADJ --> N: 1.323312
  (1) ADJ --> POST: 0.197712
  (1) ADJ --> .: 0.361667
  (1) ADJ --> !: 0.328257
  (1) ADJ --> HELPVERB: 0.494773
  (1) ADJ --> –: 0.525998
  (1) , --> CNJ: -0.270828
  (1) , --> PN: 0.348084
  (1) , --> V: 0.053109
  (1) , --> ADJ: 0.080409
  (1) , --> N: 0.360547
  (1) , --> —: 0.047476
  (1) , --> POST: -0.200677
  (1) , --> .: -0.167382
  (1) , --> ADV: 1.066977
  (1) , --> NUM: 0.499365
  (1) , --> ADVVNEG: 0.190214
  (1) , --> –: 0.092320
  (1) N --> CNJ: 0.547599
  (1) N --> PN: 0.321095
  (1) N --> V: 0.698935
  (1) N --> ADJ: 0.345942
  (1) N --> ,: 0.362040
  (1) N --> N: 0.800968
  (1) N --> : 0.420953
  (1) N --> POST: 0.100229
  (1) N --> .: -0.722615
  (1) N --> !: -0.379160
  (1) N --> ?: 0.110999
  (1) N --> HELPVERB: 0.188889
  (1) N --> ADV: 0.433188
  (1) N --> NUM: 0.440597
  (1) N --> ADVVNEG: 0.170436
  (1) N --> ;: 0.503009
  (1)  --> PN: 0.212266
  (1)  --> N: 0.618159
  (1)  --> —: 0.320698
  (1)  --> –: 0.574760
  (1) — --> CNJ: 0.599774
  (1) — --> PN: 0.430728
  (1) — --> V: 0.685518
  (1) POST --> V: 0.256735
  (1) POST --> ADJ: -0.025625
  (1) POST --> ,: 0.593608
  (1) POST --> N: 0.104986
  (1) POST --> !: 0.664766
  (1) POST --> »: 1.386886
  (1) . --> V: -0.035659
  (1) . --> (: 0.674540
  (1) . --> ): 0.722613
  (1) ! --> .: 0.097714
  (1) HELPVERB --> V: 0.857218
  (1) HELPVERB --> N: -0.087086
  (1) HELPVERB --> .: 0.918452
  (1) ADV --> CNJ: 0.268997
  (1) ADV --> PN: 0.488338
  (1) ADV --> ,: 0.350939
  (1) ADV --> N: 0.668550
  (1) NUM --> CNJ: -0.022790
  (1) NUM --> V: -0.206420
  (1) NUM --> ADJ: 0.086243
  (1) NUM --> N: 1.012237
  (1) NUM --> POST: 0.670702
  (1) NUM --> NUM: 1.310490
  (1) ADVVNEG --> ADJ: 1.034863
  (1) ADVVNEG --> –: 0.962274
  (1) ; --> CNJ: 0.374333
  (1) ; --> V: 0.796630
  (1) ; --> NUM: 0.540416
  (1) – --> PN: 0.377310
  (1) – --> V: 0.250149
  (1) – --> ADJ: 0.391964
  (1) – --> N: -0.156382
  (1) « --> PN: 0.580434
  (1) « --> N: -0.015628
  (1) « --> «: 0.913115
  (1) » --> .: 0.364121
  (1) ( --> .: 0.633500
  (1) .. --> CNJ: 0.436323
  (1) .. --> PN: 0.311958
}

STATE_FEATURES = {
  (0) isupper_False --> CNJ: 0.464624
  (0) isupper_False --> PN: 0.560012
  (0) isupper_False --> V: 1.099237
  (0) isupper_False --> ADJ: 0.585456
  (0) isupper_False --> ,: -0.273700
  (0) isupper_False --> N: 1.273356
  (0) isupper_False --> : -0.317946
  (0) isupper_False --> —: -0.296484
  (0) isupper_False --> POST: -0.021217
  (0) isupper_False --> .: -0.227260
  (0) isupper_False --> !: -0.247686
  (0) isupper_False --> ?: -0.265105
  (0) isupper_False --> HELPVERB: -0.224706
  (0) isupper_False --> ADV: -0.203061
  (0) isupper_False --> NUM: 0.446532
  (0) isupper_False --> ADVVNEG: -0.252484
  (0) isupper_False --> ;: -0.345923
  (0) isupper_False --> –: -0.265602
  (0) isupper_False --> «: -0.271943
  (0) isupper_False --> »: -0.292660
  (0) isupper_False --> (: -0.334406
  (0) isupper_False --> ): -0.316828
  (0) isupper_False --> ..: -0.272205
  (0) istitle_True --> CNJ: 0.468659
  (0) istitle_True --> PN: 0.751470
  (0) istitle_True --> V: 1.272954
  (0) istitle_True --> ADJ: 0.298621
  (0) istitle_True --> ,: -0.310864
  (0) istitle_True --> N: 1.210790
  (0) istitle_True --> : -0.272271
  (0) istitle_True --> —: -0.260514
  (0) istitle_True --> POST: -0.354624
  (0) istitle_True --> .: -0.273782
  (0) istitle_True --> !: -0.243806
  (0) istitle_True --> ?: -0.226373
  (0) istitle_True --> HELPVERB: -0.195335
  (0) istitle_True --> ADV: -0.288482
  (0) istitle_True --> NUM: 0.192500
  (0) istitle_True --> ADVVNEG: -0.204800
  (0) istitle_True --> ;: -0.236890
  (0) istitle_True --> –: -0.249368
  (0) istitle_True --> «: -0.238504
  (0) istitle_True --> »: -0.203975
  (0) istitle_True --> (: -0.176914
  (0) istitle_True --> ): -0.185395
  (0) istitle_True --> ..: -0.273097
  (0) suffix3_кин --> CNJ: 1.538819
  (0) suffix3_кин --> PN: -0.254593
  (0) suffix3_кин --> V: -0.281336
  (0) suffix3_кин --> ADJ: -0.187633
  (0) suffix3_кин --> ,: -0.007175
  (0) suffix3_кин --> N: -0.591830
  (0) suffix3_кин --> : -0.005913
  (0) suffix3_кин --> —: -0.006817
  (0) suffix3_кин --> POST: -0.028570
  (0) suffix3_кин --> .: -0.006980
  (0) suffix3_кин --> !: -0.005980
  (0) suffix3_кин --> ?: -0.005538
  (0) suffix3_кин --> HELPVERB: -0.010093
  (0) suffix3_кин --> ADV: -0.041093
  (0) suffix3_кин --> NUM: -0.057288
  (0) suffix3_кин --> ADVVNEG: -0.009206
  (0) suffix3_кин --> ;: -0.005417
  (0) suffix3_кин --> –: -0.006638
  (0) suffix3_кин --> «: -0.006643
  (0) suffix3_кин --> »: -0.004786
  (0) suffix3_кин --> (: -0.004230
  (0) suffix3_кин --> ): -0.004456
  (0) suffix3_кин --> ..: -0.006606
  (0) isdigit_False --> CNJ: 0.566912
  (0) isdigit_False --> PN: 0.608949
  (0) isdigit_False --> V: 1.131071
  (0) isdigit_False --> ADJ: 0.613821
  (0) isdigit_False --> ,: -0.202891
  (0) isdigit_False --> N: 1.327256
  (0) isdigit_False --> : -0.270308
  (0) isdigit_False --> —: -0.236390
  (0) isdigit_False --> POST: -0.003179
  (0) isdigit_False --> .: -0.167551
  (0) isdigit_False --> !: -0.201186
  (0) isdigit_False --> ?: -0.223887
  (0) isdigit_False --> HELPVERB: -0.205049
  (0) isdigit_False --> ADV: -0.188019
  (0) isdigit_False --> NUM: -0.496389
  (0) isdigit_False --> ADVVNEG: -0.236889
  (0) isdigit_False --> ;: -0.285588
  (0) isdigit_False --> –: -0.213842
  (0) isdigit_False --> «: -0.231386
  (0) isdigit_False --> »: -0.259604
  (0) isdigit_False --> (: -0.309413
  (0) isdigit_False --> ): -0.289891
  (0) isdigit_False --> ..: -0.226548
  (0) count_5 --> CNJ: 0.522925
  (0) count_5 --> PN: 0.590165
  (0) count_5 --> V: 0.005288
  (0) count_5 --> ADJ: 0.502446
  (0) count_5 --> ,: -0.205653
  (0) count_5 --> N: -0.141394
  (0) count_5 --> : -0.181372
  (0) count_5 --> —: -0.167149
  (0) count_5 --> POST: 0.285239
  (0) count_5 --> .: -0.180817
  (0) count_5 --> !: -0.158379
  (0) count_5 --> ?: -0.150337
  (0) count_5 --> HELPVERB: -0.345856
  (0) count_5 --> ADV: 0.876221
  (0) count_5 --> NUM: -0.644299
  (0) count_5 --> ADVVNEG: 0.420361
  (0) count_5 --> ;: -0.163985
  (0) count_5 --> –: -0.161908
  (0) count_5 --> «: -0.154071
  (0) count_5 --> »: -0.134540
  (0) count_5 --> (: -0.119990
  (0) count_5 --> ): -0.123534
  (0) count_5 --> ..: -0.169361
  (0) capital_False --> CNJ: -0.532149
  (0) capital_False --> PN: -0.232339
  (0) capital_False --> V: -0.369811
  (0) capital_False --> ADJ: -0.597821
  (0) capital_False --> ,: 0.447231
  (0) capital_False --> N: -0.103058
  (0) capital_False --> : 0.315241
  (0) capital_False --> —: 0.299310
  (0) capital_False --> POST: -0.704518
  (0) capital_False --> .: 0.431328
  (0) capital_False --> !: 0.332512
  (0) capital_False --> ?: 0.285526
  (0) capital_False --> HELPVERB: -0.491675
  (0) capital_False --> ADV: -0.577354
  (0) capital_False --> NUM: 0.243384
  (0) capital_False --> ADVVNEG: -0.439930
  (0) capital_False --> ;: 0.286697
  (0) capital_False --> –: 0.311497
  (0) capital_False --> «: 0.255210
  (0) capital_False --> »: 0.214950
  (0) capital_False --> (: 0.120042
  (0) capital_False --> ): 0.138791
  (0) capital_False --> ..: 0.366936
  (0) nf_ләкин --> CNJ: 0.341675
  (0) nf_ләкин --> PN: -0.123759
  (0) nf_ләкин --> V: -0.051164
  (0) nf_ләкин --> ADJ: -0.012380
  (0) nf_ләкин --> ,: -0.003623
  (0) nf_ләкин --> N: -0.102481
  (0) nf_ләкин --> : -0.002795
  (0) nf_ләкин --> —: -0.003605
  (0) nf_ләкин --> POST: -0.002028
  (0) nf_ләкин --> .: -0.003075
  (0) nf_ләкин --> !: -0.002796
  (0) nf_ләкин --> ?: -0.002599
  (0) nf_ләкин --> HELPVERB: -0.001106
  (0) nf_ләкин --> ADV: -0.004564
  (0) nf_ләкин --> NUM: -0.003337
  (0) nf_ләкин --> ADVVNEG: -0.002283
  (0) nf_ләкин --> ;: -0.002350
  (0) nf_ләкин --> –: -0.003634
  (0) nf_ләкин --> «: -0.004019
  (0) nf_ләкин --> »: -0.002371
  (0) nf_ләкин --> (: -0.002069
  (0) nf_ләкин --> ): -0.002165
  (0) nf_ләкин --> ..: -0.003471
  (0) suffix2_ин --> CNJ: 1.048240
  (0) suffix2_ин --> PN: 0.687399
  (0) suffix2_ин --> V: -0.503986
  (0) suffix2_ин --> ADJ: -0.385332
  (0) suffix2_ин --> ,: -0.023591
  (0) suffix2_ин --> N: -0.167461
  (0) suffix2_ин --> : -0.020525
  (0) suffix2_ин --> —: -0.022855
  (0) suffix2_ин --> POST: -0.082430
  (0) suffix2_ин --> .: -0.022467
  (0) suffix2_ин --> !: -0.019649
  (0) suffix2_ин --> ?: -0.018007
  (0) suffix2_ин --> HELPVERB: -0.073279
  (0) suffix2_ин --> ADV: -0.083327
  (0) suffix2_ин --> NUM: -0.147341
  (0) suffix2_ин --> ADVVNEG: -0.038098
  (0) suffix2_ин --> ;: -0.018427
  (0) suffix2_ин --> –: -0.020561
  (0) suffix2_ин --> «: -0.020620
  (0) suffix2_ин --> »: -0.016158
  (0) suffix2_ин --> (: -0.014178
  (0) suffix2_ин --> ): -0.014926
  (0) suffix2_ин --> ..: -0.022422
  (0) istitle_False --> CNJ: -0.004036
  (0) istitle_False --> PN: -0.191458
  (0) istitle_False --> V: -0.173717
  (0) istitle_False --> ADJ: 0.286835
  (0) istitle_False --> ,: 0.037164
  (0) istitle_False --> N: 0.062566
  (0) istitle_False --> : -0.045675
  (0) istitle_False --> —: -0.035970
  (0) istitle_False --> POST: 0.333407
  (0) istitle_False --> .: 0.046522
  (0) istitle_False --> !: -0.003880
  (0) istitle_False --> ?: -0.038732
  (0) istitle_False --> HELPVERB: -0.029371
  (0) istitle_False --> ADV: 0.085421
  (0) istitle_False --> NUM: 0.254032
  (0) istitle_False --> ADVVNEG: -0.047684
  (0) istitle_False --> ;: -0.109032
  (0) istitle_False --> –: -0.016234
  (0) istitle_False --> «: -0.033439
  (0) istitle_False --> »: -0.088684
  (0) istitle_False --> (: -0.157493
  (0) istitle_False --> ): -0.131433
  (0) istitle_False --> ..: 0.000892
  (0) suffix3_зен --> CNJ: -0.035761
  (0) suffix3_зен --> PN: 0.128249
  (0) suffix3_зен --> V: -0.024600
  (0) suffix3_зен --> ADJ: -0.007229
  (0) suffix3_зен --> ,: -0.000626
  (0) suffix3_зен --> N: -0.028585
  (0) suffix3_зен --> : -0.000403
  (0) suffix3_зен --> —: -0.000484
  (0) suffix3_зен --> POST: -0.017733
  (0) suffix3_зен --> .: -0.000367
  (0) suffix3_зен --> !: -0.000387
  (0) suffix3_зен --> ?: -0.000387
  (0) suffix3_зен --> HELPVERB: -0.004044
  (0) suffix3_зен --> ADV: -0.001697
  (0) suffix3_зен --> NUM: -0.002403
  (0) suffix3_зен --> ADVVNEG: -0.000696
  (0) suffix3_зен --> ;: -0.000322
  (0) suffix3_зен --> –: -0.000491
  (0) suffix3_зен --> «: -0.000571
  (0) suffix3_зен --> »: -0.000343
  (0) suffix3_зен --> (: -0.000310
  (0) suffix3_зен --> ): -0.000328
  (0) suffix3_зен --> ..: -0.000483
  (0) count_4 --> CNJ: 0.650067
  (0) count_4 --> PN: 1.029651
  (0) count_4 --> V: 0.105668
  (0) count_4 --> ADJ: -0.196432
  (0) count_4 --> ,: -0.164956
  (0) count_4 --> N: -0.502848
  (0) count_4 --> : -0.144057
  (0) count_4 --> —: -0.145602
  (0) count_4 --> POST: 0.931549
  (0) count_4 --> .: -0.160170
  (0) count_4 --> !: -0.138118
  (0) count_4 --> ?: -0.126130
  (0) count_4 --> HELPVERB: 0.214735
  (0) count_4 --> ADV: -0.394563
  (0) count_4 --> NUM: 0.159458
  (0) count_4 --> ADVVNEG: -0.233322
  (0) count_4 --> ;: -0.149297
  (0) count_4 --> –: -0.138225
  (0) count_4 --> «: -0.129555
  (0) count_4 --> »: -0.115484
  (0) count_4 --> (: -0.104125
  (0) count_4 --> ): -0.106231
  (0) count_4 --> ..: -0.142013
  (0) capital_True --> CNJ: 0.996773
  (0) capital_True --> PN: 0.792351
  (0) capital_True --> V: 1.469049
  (0) capital_True --> ADJ: 1.183277
  (0) capital_True --> ,: -0.720931
  (0) capital_True --> N: 1.376414
  (0) capital_True --> : -0.633187
  (0) capital_True --> —: -0.595794
  (0) capital_True --> POST: 0.683301
  (0) capital_True --> .: -0.658588
  (0) capital_True --> !: -0.580198
  (0) capital_True --> ?: -0.550632
  (0) capital_True --> HELPVERB: 0.266969
  (0) capital_True --> ADV: 0.374292
  (0) capital_True --> NUM: 0.203148
  (0) capital_True --> ADVVNEG: 0.187445
  (0) capital_True --> ;: -0.632620
  (0) capital_True --> –: -0.577099
  (0) capital_True --> «: -0.527153
  (0) capital_True --> »: -0.507609
  (0) capital_True --> (: -0.454448
  (0) capital_True --> ): -0.455619
  (0) capital_True --> ..: -0.639141
  (0) nf_үз --> CNJ: -0.205044
  (0) nf_үз --> PN: 1.781936
  (0) nf_үз --> V: -0.214781
  (0) nf_үз --> ADJ: -0.267163
  (0) nf_үз --> ,: -0.005098
  (0) nf_үз --> N: -0.856569
  (0) nf_үз --> : -0.004198
  (0) nf_үз --> —: -0.004894
  (0) nf_үз --> POST: -0.065616
  (0) nf_үз --> .: -0.003430
  (0) nf_үз --> !: -0.003791
  (0) nf_үз --> ?: -0.003760
  (0) nf_үз --> HELPVERB: -0.032310
  (0) nf_үз --> ADV: -0.025658
  (0) nf_үз --> NUM: -0.051730
  (0) nf_үз --> ADVVNEG: -0.010645
  (0) nf_үз --> ;: -0.003996
  (0) nf_үз --> –: -0.004462
  (0) nf_үз --> «: -0.003865
  (0) nf_үз --> »: -0.003389
  (0) nf_үз --> (: -0.003046
  (0) nf_үз --> ): -0.003231
  (0) nf_үз --> ..: -0.005262
  (0) suffix2_ен --> CNJ: -0.065400
  (0) suffix2_ен --> PN: 0.768110
  (0) suffix2_ен --> V: -0.748166
  (0) suffix2_ен --> ADJ: -0.905978
  (0) suffix2_ен --> ,: -0.032553
  (0) suffix2_ен --> N: -0.148360
  (0) suffix2_ен --> : -0.028211
  (0) suffix2_ен --> —: -0.026086
  (0) suffix2_ен --> POST: 0.713476
  (0) suffix2_ен --> .: -0.033127
  (0) suffix2_ен --> !: -0.025898
  (0) suffix2_ен --> ?: -0.022450
  (0) suffix2_ен --> HELPVERB: 1.052469
  (0) suffix2_ен --> ADV: -0.118096
  (0) suffix2_ен --> NUM: -0.156485
  (0) suffix2_ен --> ADVVNEG: -0.063767
  (0) suffix2_ен --> ;: -0.030295
  (0) suffix2_ен --> –: -0.024084
  (0) suffix2_ен --> «: -0.022013
  (0) suffix2_ен --> »: -0.019810
  (0) suffix2_ен --> (: -0.017624
  (0) suffix2_ен --> ): -0.018631
  (0) suffix2_ен --> ..: -0.027021
  (0) suffix3_бу --> CNJ: -0.188382
  (0) suffix3_бу --> PN: 0.510278
  (0) suffix3_бу --> V: -0.053583
  (0) suffix3_бу --> ADJ: -0.053653
  (0) suffix3_бу --> ,: -0.001916
  (0) suffix3_бу --> N: -0.143618
  (0) suffix3_бу --> : -0.001975
  (0) suffix3_бу --> —: -0.001647
  (0) suffix3_бу --> POST: -0.010038
  (0) suffix3_бу --> .: -0.001682
  (0) suffix3_бу --> !: -0.001397
  (0) suffix3_бу --> ?: -0.001755
  (0) suffix3_бу --> HELPVERB: -0.003914
  (0) suffix3_бу --> ADV: -0.007150
  (0) suffix3_бу --> NUM: -0.023344
  (0) suffix3_бу --> ADVVNEG: -0.003206
  (0) suffix3_бу --> ;: -0.001522
  (0) suffix3_бу --> –: -0.001318
  (0) suffix3_бу --> «: -0.001353
  (0) suffix3_бу --> »: -0.001322
  (0) suffix3_бу --> (: -0.001130
  (0) suffix3_бу --> ): -0.001200
  (0) suffix3_бу --> ..: -0.005173
  (0) count_2 --> CNJ: 2.016303
  (0) count_2 --> PN: 0.897410
  (0) count_2 --> V: -1.063221
  (0) count_2 --> ADJ: -0.945002
  (0) count_2 --> ,: -0.104441
  (0) count_2 --> N: -0.852895
  (0) count_2 --> : -0.080418
  (0) count_2 --> —: -0.072202
  (0) count_2 --> POST: -0.253510
  (0) count_2 --> .: -0.099430
  (0) count_2 --> !: -0.075525
  (0) count_2 --> ?: -0.070266
  (0) count_2 --> HELPVERB: -0.128916
  (0) count_2 --> ADV: -0.179594
  (0) count_2 --> NUM: 0.551668
  (0) count_2 --> ADVVNEG: -0.097942
  (0) count_2 --> ;: -0.076114
  (0) count_2 --> –: -0.072614
  (0) count_2 --> «: -0.066566
  (0) count_2 --> »: -0.058981
  (0) count_2 --> (: -0.050389
  (0) count_2 --> ): -0.051068
  (0) count_2 --> ..: 0.933713
  (0) nf_бу --> CNJ: -0.338574
  (0) nf_бу --> PN: 1.632198
  (0) nf_бу --> V: -0.246192
  (0) nf_бу --> ADJ: -0.163162
  (0) nf_бу --> ,: -0.012331
  (0) nf_бу --> N: -0.596974
  (0) nf_бу --> : -0.011917
  (0) nf_бу --> —: -0.009783
  (0) nf_бу --> POST: -0.024352
  (0) nf_бу --> .: -0.010107
  (0) nf_бу --> !: -0.009142
  (0) nf_бу --> ?: -0.009023
  (0) nf_бу --> HELPVERB: -0.011318
  (0) nf_бу --> ADV: -0.021110
  (0) nf_бу --> NUM: -0.087774
  (0) nf_бу --> ADVVNEG: -0.008563
  (0) nf_бу --> ;: -0.008953
  (0) nf_бу --> –: -0.008733
  (0) nf_бу --> «: -0.008469
  (0) nf_бу --> »: -0.007921
  (0) nf_бу --> (: -0.006894
  (0) nf_бу --> ): -0.007254
  (0) nf_бу --> ..: -0.023654
  (0) suffix2_бу --> CNJ: -0.188382
  (0) suffix2_бу --> PN: 0.510278
  (0) suffix2_бу --> V: -0.053583
  (0) suffix2_бу --> ADJ: -0.053653
  (0) suffix2_бу --> ,: -0.001916
  (0) suffix2_бу --> N: -0.143618
  (0) suffix2_бу --> : -0.001975
  (0) suffix2_бу --> —: -0.001647
  (0) suffix2_бу --> POST: -0.010038
  (0) suffix2_бу --> .: -0.001682
  (0) suffix2_бу --> !: -0.001397
  (0) suffix2_бу --> ?: -0.001755
  (0) suffix2_бу --> HELPVERB: -0.003914
  (0) suffix2_бу --> ADV: -0.007150
  (0) suffix2_бу --> NUM: -0.023344
  (0) suffix2_бу --> ADVVNEG: -0.003206
  (0) suffix2_бу --> ;: -0.001522
  (0) suffix2_бу --> –: -0.001318
  (0) suffix2_бу --> «: -0.001353
  (0) suffix2_бу --> »: -0.001322
  (0) suffix2_бу --> (: -0.001130
  (0) suffix2_бу --> ): -0.001200
  (0) suffix2_бу --> ..: -0.005173
  (0) count_6 --> CNJ: -0.295563
  (0) count_6 --> PN: 0.048852
  (0) count_6 --> V: 0.328878
  (0) count_6 --> ADJ: 0.105711
  (0) count_6 --> ,: -0.149267
  (0) count_6 --> N: 0.251869
  (0) count_6 --> : -0.127715
  (0) count_6 --> —: -0.127516
  (0) count_6 --> POST: 0.038094
  (0) count_6 --> .: -0.132311
  (0) count_6 --> !: -0.119631
  (0) count_6 --> ?: -0.113859
  (0) count_6 --> HELPVERB: -0.301598
  (0) count_6 --> ADV: 0.673485
  (0) count_6 --> NUM: 0.915209
  (0) count_6 --> ADVVNEG: -0.222419
  (0) count_6 --> ;: -0.133183
  (0) count_6 --> –: -0.119476
  (0) count_6 --> «: -0.107525
  (0) count_6 --> »: -0.104972
  (0) count_6 --> (: -0.090891
  (0) count_6 --> ): -0.093258
  (0) count_6 --> ..: -0.122915
  (0) nf_мөмкин --> CNJ: 1.197144
  (0) nf_мөмкин --> PN: -0.130834
  (0) nf_мөмкин --> V: -0.230173
  (0) nf_мөмкин --> ADJ: -0.175253
  (0) nf_мөмкин --> ,: -0.003552
  (0) nf_мөмкин --> N: -0.489349
  (0) nf_мөмкин --> : -0.003117
  (0) nf_мөмкин --> —: -0.003212
  (0) nf_мөмкин --> POST: -0.026542
  (0) nf_мөмкин --> .: -0.003905
  (0) nf_мөмкин --> !: -0.003184
  (0) nf_мөмкин --> ?: -0.002938
  (0) nf_мөмкин --> HELPVERB: -0.008987
  (0) nf_мөмкин --> ADV: -0.036529
  (0) nf_мөмкин --> NUM: -0.053951
  (0) nf_мөмкин --> ADVVNEG: -0.006923
  (0) nf_мөмкин --> ;: -0.003068
  (0) nf_мөмкин --> –: -0.003004
  (0) nf_мөмкин --> «: -0.002624
  (0) nf_мөмкин --> »: -0.002415
  (0) nf_мөмкин --> (: -0.002161
  (0) nf_мөмкин --> ): -0.002290
  (0) nf_мөмкин --> ..: -0.003134
  (0) suffix3_ган --> CNJ: -0.061254
  (0) suffix3_ган --> PN: -0.066084
  (0) suffix3_ган --> V: 1.668819
  (0) suffix3_ган --> ADJ: -0.294116
  (0) suffix3_ган --> ,: -0.006390
  (0) suffix3_ган --> N: -1.005478
  (0) suffix3_ган --> : -0.005023
  (0) suffix3_ган --> —: -0.003712
  (0) suffix3_ган --> POST: -0.030457
  (0) suffix3_ган --> .: -0.005754
  (0) suffix3_ган --> !: -0.004781
  (0) suffix3_ган --> ?: -0.003938
  (0) suffix3_ган --> HELPVERB: -0.011746
  (0) suffix3_ган --> ADV: -0.043672
  (0) suffix3_ган --> NUM: -0.088246
  (0) suffix3_ган --> ADVVNEG: -0.011036
  (0) suffix3_ган --> ;: -0.004083
  (0) suffix3_ган --> –: -0.004027
  (0) suffix3_ган --> «: -0.003709
  (0) suffix3_ган --> »: -0.004670
  (0) suffix3_ган --> (: -0.003033
  (0) suffix3_ган --> ): -0.003207
  (0) suffix3_ган --> ..: -0.004401
  (0) count_8 --> CNJ: -0.141987
  (0) count_8 --> PN: -0.301983
  (0) count_8 --> V: 0.822983
  (0) count_8 --> ADJ: 0.295055
  (0) count_8 --> ,: -0.059018
  (0) count_8 --> N: 0.984386
  (0) count_8 --> : -0.050270
  (0) count_8 --> —: -0.047368
  (0) count_8 --> POST: -0.322341
  (0) count_8 --> .: -0.055489
  (0) count_8 --> !: -0.046383
  (0) count_8 --> ?: -0.043878
  (0) count_8 --> HELPVERB: -0.131604
  (0) count_8 --> ADV: -0.195280
  (0) count_8 --> NUM: -0.289630
  (0) count_8 --> ADVVNEG: -0.120975
  (0) count_8 --> ;: -0.049466
  (0) count_8 --> –: -0.046925
  (0) count_8 --> «: -0.042351
  (0) count_8 --> »: -0.038969
  (0) count_8 --> (: -0.035026
  (0) count_8 --> ): -0.035521
  (0) count_8 --> ..: -0.047958
  (0) nf_бул --> CNJ: -0.152340
  (0) nf_бул --> PN: -0.155750
  (0) nf_бул --> V: 1.537789
  (0) nf_бул --> ADJ: -0.341097
  (0) nf_бул --> ,: -0.005362
  (0) nf_бул --> N: -0.665938
  (0) nf_бул --> : -0.004495
  (0) nf_бул --> —: -0.003738
  (0) nf_бул --> POST: -0.062208
  (0) nf_бул --> .: -0.005439
  (0) nf_бул --> !: -0.004223
  (0) nf_бул --> ?: -0.003798
  (0) nf_бул --> HELPVERB: -0.013715
  (0) nf_бул --> ADV: -0.037706
  (0) nf_бул --> NUM: -0.045403
  (0) nf_бул --> ADVVNEG: -0.010713
  (0) nf_бул --> ;: -0.004298
  (0) nf_бул --> –: -0.003653
  (0) nf_бул --> «: -0.003621
  (0) nf_бул --> »: -0.003449
  (0) nf_бул --> (: -0.003127
  (0) nf_бул --> ): -0.003173
  (0) nf_бул --> ..: -0.004543
  (0) suffix2_ан --> CNJ: -0.371669
  (0) suffix2_ан --> PN: -0.384074
  (0) suffix2_ан --> V: 0.356259
  (0) suffix2_ан --> ADJ: -0.306127
  (0) suffix2_ан --> ,: -0.028166
  (0) suffix2_ан --> N: 0.061307
  (0) suffix2_ан --> : -0.024397
  (0) suffix2_ан --> —: -0.022128
  (0) suffix2_ан --> POST: -0.163838
  (0) suffix2_ан --> .: -0.022672
  (0) suffix2_ан --> !: -0.020311
  (0) suffix2_ан --> ?: -0.020455
  (0) suffix2_ан --> HELPVERB: -0.055821
  (0) suffix2_ан --> ADV: 0.606385
  (0) suffix2_ан --> NUM: 0.581128
  (0) suffix2_ан --> ADVVNEG: -0.046720
  (0) suffix2_ан --> ;: -0.025092
  (0) suffix2_ан --> –: -0.021327
  (0) suffix2_ан --> «: -0.019156
  (0) suffix2_ан --> »: -0.019420
  (0) suffix2_ан --> (: -0.015856
  (0) suffix2_ан --> ): -0.016756
  (0) suffix2_ан --> ..: -0.021094
  (0) suffix3_әгә --> CNJ: -0.027888
  (0) suffix3_әгә --> PN: 0.528726
  (0) suffix3_әгә --> V: -0.142685
  (0) suffix3_әгә --> ADJ: -0.110533
  (0) suffix3_әгә --> ,: -0.002680
  (0) suffix3_әгә --> N: -0.153899
  (0) suffix3_әгә --> : -0.002000
  (0) suffix3_әгә --> —: -0.002260
  (0) suffix3_әгә --> POST: -0.022151
  (0) suffix3_әгә --> .: -0.003920
  (0) suffix3_әгә --> !: -0.002769
  (0) suffix3_әгә --> ?: -0.001841
  (0) suffix3_әгә --> HELPVERB: -0.007625
  (0) suffix3_әгә --> ADV: -0.009274
  (0) suffix3_әгә --> NUM: -0.016819
  (0) suffix3_әгә --> ADVVNEG: -0.008340
  (0) suffix3_әгә --> ;: -0.002232
  (0) suffix3_әгә --> –: -0.002305
  (0) suffix3_әгә --> «: -0.001867
  (0) suffix3_әгә --> »: -0.001697
  (0) suffix3_әгә --> (: -0.001535
  (0) suffix3_әгә --> ): -0.001632
  (0) suffix3_әгә --> ..: -0.002776
  (0) count_7 --> CNJ: -0.300093
  (0) count_7 --> PN: 0.284544
  (0) count_7 --> V: 0.186770
  (0) count_7 --> ADJ: 0.532931
  (0) count_7 --> ,: -0.091017
  (0) count_7 --> N: 0.391355
  (0) count_7 --> : -0.077987
  (0) count_7 --> —: -0.074730
  (0) count_7 --> POST: 0.171410
  (0) count_7 --> .: -0.089872
  (0) count_7 --> !: -0.076152
  (0) count_7 --> ?: -0.067752
  (0) count_7 --> HELPVERB: -0.213688
  (0) count_7 --> ADV: -0.284099
  (0) count_7 --> NUM: 0.341780
  (0) count_7 --> ADVVNEG: -0.166525
  (0) count_7 --> ;: -0.076611
  (0) count_7 --> –: -0.070233
  (0) count_7 --> «: -0.065080
  (0) count_7 --> »: -0.064185
  (0) count_7 --> (: -0.056264
  (0) count_7 --> ): -0.055723
  (0) count_7 --> ..: -0.078779
  (0) nf_нәрсә --> CNJ: -0.086536
  (0) nf_нәрсә --> PN: 1.274083
  (0) nf_нәрсә --> V: -0.232313
  (0) nf_нәрсә --> ADJ: -0.199537
  (0) nf_нәрсә --> ,: -0.006559
  (0) nf_нәрсә --> N: -0.604206
  (0) nf_нәрсә --> : -0.005079
  (0) nf_нәрсә --> —: -0.005163
  (0) nf_нәрсә --> POST: -0.027751
  (0) nf_нәрсә --> .: -0.007103
  (0) nf_нәрсә --> !: -0.005389
  (0) nf_нәрсә --> ?: -0.004632
  (0) nf_нәрсә --> HELPVERB: -0.008708
  (0) nf_нәрсә --> ADV: -0.018424
  (0) nf_нәрсә --> NUM: -0.018506
  (0) nf_нәрсә --> ADVVNEG: -0.011659
  (0) nf_нәрсә --> ;: -0.004281
  (0) nf_нәрсә --> –: -0.005571
  (0) nf_нәрсә --> «: -0.005603
  (0) nf_нәрсә --> »: -0.003925
  (0) nf_нәрсә --> (: -0.003467
  (0) nf_нәрсә --> ): -0.003652
  (0) nf_нәрсә --> ..: -0.006018
  (0) suffix2_гә --> CNJ: -0.192661
  (0) suffix2_гә --> PN: 1.141839
  (0) suffix2_гә --> V: -0.574852
  (0) suffix2_гә --> ADJ: -0.509204
  (0) suffix2_гә --> ,: -0.008955
  (0) suffix2_гә --> N: 0.475461
  (0) suffix2_гә --> : -0.006943
  (0) suffix2_гә --> —: -0.008890
  (0) suffix2_гә --> POST: -0.085428
  (0) suffix2_гә --> .: -0.008781
  (0) suffix2_гә --> !: -0.007967
  (0) suffix2_гә --> ?: -0.006675
  (0) suffix2_гә --> HELPVERB: -0.026947
  (0) suffix2_гә --> ADV: -0.061003
  (0) suffix2_гә --> NUM: -0.046918
  (0) suffix2_гә --> ADVVNEG: -0.023599
  (0) suffix2_гә --> ;: -0.008385
  (0) suffix2_гә --> –: -0.007947
  (0) suffix2_гә --> «: -0.006742
  (0) suffix2_гә --> »: -0.006197
  (0) suffix2_гә --> (: -0.005566
  (0) suffix2_гә --> ): -0.005903
  (0) suffix2_гә --> ..: -0.007738
  (0) suffix3_бүр --> CNJ: -0.023714
  (0) suffix3_бүр --> PN: -0.029675
  (0) suffix3_бүр --> V: -0.107322
  (0) suffix3_бүр --> ADJ: 0.464970
  (0) suffix3_бүр --> ,: -0.001051
  (0) suffix3_бүр --> N: -0.256323
  (0) suffix3_бүр --> : -0.000899
  (0) suffix3_бүр --> —: -0.001172
  (0) suffix3_бүр --> POST: -0.009103
  (0) suffix3_бүр --> .: -0.001017
  (0) suffix3_бүр --> !: -0.000845
  (0) suffix3_бүр --> ?: -0.001108
  (0) suffix3_бүр --> HELPVERB: -0.003375
  (0) suffix3_бүр --> ADV: -0.007357
  (0) suffix3_бүр --> NUM: -0.013857
  (0) suffix3_бүр --> ADVVNEG: -0.001885
  (0) suffix3_бүр --> ;: -0.001222
  (0) suffix3_бүр --> –: -0.000995
  (0) suffix3_бүр --> «: -0.000841
  (0) suffix3_бүр --> »: -0.000783
  (0) suffix3_бүр --> (: -0.000682
  (0) suffix3_бүр --> ): -0.000724
  (0) suffix3_бүр --> ..: -0.001020
  (0) nf_мәҗбүр --> CNJ: -0.031908
  (0) nf_мәҗбүр --> PN: -0.050961
  (0) nf_мәҗбүр --> V: -0.592628
  (0) nf_мәҗбүр --> ADJ: 1.188910
  (0) nf_мәҗбүр --> ,: -0.002312
  (0) nf_мәҗбүр --> N: -0.417092
  (0) nf_мәҗбүр --> : -0.001908
  (0) nf_мәҗбүр --> —: -0.002003
  (0) nf_мәҗбүр --> POST: -0.024013
  (0) nf_мәҗбүр --> .: -0.003390
  (0) nf_мәҗбүр --> !: -0.002505
  (0) nf_мәҗбүр --> ?: -0.002047
  (0) nf_мәҗбүр --> HELPVERB: -0.013351
  (0) nf_мәҗбүр --> ADV: -0.009715
  (0) nf_мәҗбүр --> NUM: -0.016854
  (0) nf_мәҗбүр --> ADVVNEG: -0.004251
  (0) nf_мәҗбүр --> ;: -0.002300
  (0) nf_мәҗбүр --> –: -0.001911
  (0) nf_мәҗбүр --> «: -0.001760
  (0) nf_мәҗбүр --> »: -0.001998
  (0) nf_мәҗбүр --> (: -0.002077
  (0) nf_мәҗбүр --> ): -0.001534
  (0) nf_мәҗбүр --> ..: -0.002394
  (0) suffix2_үр --> CNJ: -0.023714
  (0) suffix2_үр --> PN: -0.029675
  (0) suffix2_үр --> V: -0.107322
  (0) suffix2_үр --> ADJ: 0.464970
  (0) suffix2_үр --> ,: -0.001051
  (0) suffix2_үр --> N: -0.256323
  (0) suffix2_үр --> : -0.000899
  (0) suffix2_үр --> —: -0.001172
  (0) suffix2_үр --> POST: -0.009103
  (0) suffix2_үр --> .: -0.001017
  (0) suffix2_үр --> !: -0.000845
  (0) suffix2_үр --> ?: -0.001108
  (0) suffix2_үр --> HELPVERB: -0.003375
  (0) suffix2_үр --> ADV: -0.007357
  (0) suffix2_үр --> NUM: -0.013857
  (0) suffix2_үр --> ADVVNEG: -0.001885
  (0) suffix2_үр --> ;: -0.001222
  (0) suffix2_үр --> –: -0.000995
  (0) suffix2_үр --> «: -0.000841
  (0) suffix2_үр --> »: -0.000783
  (0) suffix2_үр --> (: -0.000682
  (0) suffix2_үр --> ): -0.000724
  (0) suffix2_үр --> ..: -0.001020
  (0) suffix3_итә --> CNJ: -0.042980
  (0) suffix3_итә --> PN: -0.040415
  (0) suffix3_итә --> V: 0.487075
  (0) suffix3_итә --> ADJ: -0.071188
  (0) suffix3_итә --> ,: -0.001381
  (0) suffix3_итә --> N: -0.249799
  (0) suffix3_итә --> : -0.000952
  (0) suffix3_итә --> —: -0.001702
  (0) suffix3_итә --> POST: -0.017511
  (0) suffix3_итә --> .: -0.001361
  (0) suffix3_итә --> !: -0.001277
  (0) suffix3_итә --> ?: -0.001036
  (0) suffix3_итә --> HELPVERB: -0.031755
  (0) suffix3_итә --> ADV: -0.004641
  (0) suffix3_итә --> NUM: -0.007888
  (0) suffix3_итә --> ADVVNEG: -0.004900
  (0) suffix3_итә --> ;: -0.001853
  (0) suffix3_итә --> –: -0.001694
  (0) suffix3_итә --> «: -0.001020
  (0) suffix3_итә --> »: -0.000956
  (0) suffix3_итә --> (: -0.000842
  (0) suffix3_итә --> ): -0.000895
  (0) suffix3_итә --> ..: -0.001028
  (0) count_3 --> CNJ: 0.108589
  (0) count_3 --> PN: 0.862290
  (0) count_3 --> V: -0.905655
  (0) count_3 --> ADJ: -0.235218
  (0) count_3 --> ,: -0.169822
  (0) count_3 --> N: -0.942832
  (0) count_3 --> : -0.155220
  (0) count_3 --> —: -0.140547
  (0) count_3 --> POST: 0.320372
  (0) count_3 --> .: -0.151923
  (0) count_3 --> !: -0.137579
  (0) count_3 --> ?: -0.131355
  (0) count_3 --> HELPVERB: 1.322857
  (0) count_3 --> ADV: 0.124711
  (0) count_3 --> NUM: 0.469662
  (0) count_3 --> ADVVNEG: 0.643918
  (0) count_3 --> ;: -0.139414
  (0) count_3 --> –: -0.136888
  (0) count_3 --> «: -0.128988
  (0) count_3 --> »: -0.120328
  (0) count_3 --> (: -0.106804
  (0) count_3 --> ): -0.108663
  (0) count_3 --> ..: -0.141164
  (0) nf_ит --> CNJ: -0.373497
  (0) nf_ит --> PN: -0.225763
  (0) nf_ит --> V: 1.259792
  (0) nf_ит --> ADJ: -0.415037
  (0) nf_ит --> ,: -0.005268
  (0) nf_ит --> N: -0.014055
  (0) nf_ит --> : -0.004326
  (0) nf_ит --> —: -0.005279
  (0) nf_ит --> POST: -0.054194
  (0) nf_ит --> .: -0.003883
  (0) nf_ит --> !: -0.003786
  (0) nf_ит --> ?: -0.003955
  (0) nf_ит --> HELPVERB: -0.043062
  (0) nf_ит --> ADV: -0.028765
  (0) nf_ит --> NUM: -0.032402
  (0) nf_ит --> ADVVNEG: -0.014254
  (0) nf_ит --> ;: -0.006062
  (0) nf_ит --> –: -0.005025
  (0) nf_ит --> «: -0.004264
  (0) nf_ит --> »: -0.003670
  (0) nf_ит --> (: -0.003316
  (0) nf_ит --> ): -0.003259
  (0) nf_ит --> ..: -0.006668
  (0) suffix2_тә --> CNJ: 0.359530
  (0) suffix2_тә --> PN: -0.167627
  (0) suffix2_тә --> V: 0.065731
  (0) suffix2_тә --> ADJ: 0.198214
  (0) suffix2_тә --> ,: -0.004767
  (0) suffix2_тә --> N: -0.251750
  (0) suffix2_тә --> : -0.004314
  (0) suffix2_тә --> —: -0.004019
  (0) suffix2_тә --> POST: -0.038490
  (0) suffix2_тә --> .: -0.003946
  (0) suffix2_тә --> !: -0.003957
  (0) suffix2_тә --> ?: -0.003650
  (0) suffix2_тә --> HELPVERB: -0.044866
  (0) suffix2_тә --> ADV: -0.016538
  (0) suffix2_тә --> NUM: -0.039358
  (0) suffix2_тә --> ADVVNEG: -0.010704
  (0) suffix2_тә --> ;: -0.004452
  (0) suffix2_тә --> –: -0.004225
  (0) suffix2_тә --> «: -0.003508
  (0) suffix2_тә --> »: -0.003990
  (0) suffix2_тә --> (: -0.003937
  (0) suffix2_тә --> ): -0.003093
  (0) suffix2_тә --> ..: -0.006281
  (0) suffix3_ады --> CNJ: -0.019391
  (0) suffix3_ады --> PN: -0.048205
  (0) suffix3_ады --> V: 0.418017
  (0) suffix3_ады --> ADJ: -0.114132
  (0) suffix3_ады --> ,: -0.001898
  (0) suffix3_ады --> N: -0.164840
  (0) suffix3_ады --> : -0.001509
  (0) suffix3_ады --> —: -0.001269
  (0) suffix3_ады --> POST: -0.016974
  (0) suffix3_ады --> .: -0.002572
  (0) suffix3_ады --> !: -0.001967
  (0) suffix3_ады --> ?: -0.001470
  (0) suffix3_ады --> HELPVERB: -0.010129
  (0) suffix3_ады --> ADV: -0.007225
  (0) suffix3_ады --> NUM: -0.012219
  (0) suffix3_ады --> ADVVNEG: -0.003184
  (0) suffix3_ады --> ;: -0.001528
  (0) suffix3_ады --> –: -0.001449
  (0) suffix3_ады --> «: -0.001400
  (0) suffix3_ады --> »: -0.001779
  (0) suffix3_ады --> (: -0.001897
  (0) suffix3_ады --> ): -0.001241
  (0) suffix3_ады --> ..: -0.001740
  (0) nf_ал --> CNJ: -0.182081
  (0) nf_ал --> PN: 1.168966
  (0) nf_ал --> V: 0.757303
  (0) nf_ал --> ADJ: -0.305682
  (0) nf_ал --> ,: -0.009525
  (0) nf_ал --> N: -1.000642
  (0) nf_ал --> : -0.008301
  (0) nf_ал --> —: -0.008165
  (0) nf_ал --> POST: -0.149011
  (0) nf_ал --> .: -0.010886
  (0) nf_ал --> !: -0.008633
  (0) nf_ал --> ?: -0.007827
  (0) nf_ал --> HELPVERB: -0.030971
  (0) nf_ал --> ADV: -0.058893
  (0) nf_ал --> NUM: -0.051854
  (0) nf_ал --> ADVVNEG: -0.038572
  (0) nf_ал --> ;: -0.009478
  (0) nf_ал --> –: -0.007548
  (0) nf_ал --> «: -0.007401
  (0) nf_ал --> »: -0.007592
  (0) nf_ал --> (: -0.007117
  (0) nf_ал --> ): -0.006523
  (0) nf_ал --> ..: -0.009566
  (0) suffix2_ды --> CNJ: -0.096489
  (0) suffix2_ды --> PN: -0.200672
  (0) suffix2_ды --> V: 1.061096
  (0) suffix2_ды --> ADJ: -0.245785
  (0) suffix2_ды --> ,: -0.004595
  (0) suffix2_ды --> N: -0.340979
  (0) suffix2_ды --> : -0.003522
  (0) suffix2_ды --> —: -0.003047
  (0) suffix2_ды --> POST: -0.053389
  (0) suffix2_ды --> .: -0.005812
  (0) suffix2_ды --> !: -0.004478
  (0) suffix2_ды --> ?: -0.003447
  (0) suffix2_ды --> HELPVERB: -0.020599
  (0) suffix2_ды --> ADV: -0.021909
  (0) suffix2_ды --> NUM: -0.022048
  (0) suffix2_ды --> ADVVNEG: -0.009221
  (0) suffix2_ды --> ;: -0.003559
  (0) suffix2_ды --> –: -0.003412
  (0) suffix2_ды --> «: -0.003329
  (0) suffix2_ды --> »: -0.003832
  (0) suffix2_ды --> (: -0.003953
  (0) suffix2_ды --> ): -0.002941
  (0) suffix2_ды --> ..: -0.004076
  (0) suffix3_, --> CNJ: -0.082160
  (0) suffix3_, --> PN: -0.100664
  (0) suffix3_, --> V: -0.176206
  (0) suffix3_, --> ADJ: -0.134419
  (0) suffix3_, --> ,: 2.039453
  (0) suffix3_, --> N: -0.243663
  (0) suffix3_, --> : -0.121623
  (0) suffix3_, --> —: -0.096041
  (0) suffix3_, --> POST: -0.040943
  (0) suffix3_, --> .: -0.146649
  (0) suffix3_, --> !: -0.098980
  (0) suffix3_, --> ?: -0.083396
  (0) suffix3_, --> HELPVERB: -0.035121
  (0) suffix3_, --> ADV: -0.038163
  (0) suffix3_, --> NUM: -0.129324
  (0) suffix3_, --> ADVVNEG: -0.029933
  (0) suffix3_, --> ;: -0.105258
  (0) suffix3_, --> –: -0.094029
  (0) suffix3_, --> «: -0.077121
  (0) suffix3_, --> »: -0.063152
  (0) suffix3_, --> (: -0.044383
  (0) suffix3_, --> ): -0.048513
  (0) suffix3_, --> ..: -0.049713
  (0) count_1 --> CNJ: -0.624908
  (0) count_1 --> PN: -0.764860
  (0) count_1 --> V: -0.889579
  (0) count_1 --> ADJ: -0.948219
  (0) count_1 --> ,: 0.816889
  (0) count_1 --> N: -1.762658
  (0) count_1 --> : 0.624958
  (0) count_1 --> —: 0.597782
  (0) count_1 --> POST: -0.342114
  (0) count_1 --> .: 0.766133
  (0) count_1 --> !: 0.616611
  (0) count_1 --> ?: 0.546489
  (0) count_1 --> HELPVERB: -0.285355
  (0) count_1 --> ADV: -0.266576
  (0) count_1 --> NUM: -0.275973
  (0) count_1 --> ADVVNEG: -0.217650
  (0) count_1 --> ;: 0.562392
  (0) count_1 --> –: 0.598233
  (0) count_1 --> «: 0.529485
  (0) count_1 --> »: 0.444807
  (0) count_1 --> (: 0.317102
  (0) count_1 --> ): 0.345780
  (0) count_1 --> ..: -0.388770
  (0) nf_, --> CNJ: -0.082160
  (0) nf_, --> PN: -0.100664
  (0) nf_, --> V: -0.176206
  (0) nf_, --> ADJ: -0.134419
  (0) nf_, --> ,: 2.039453
  (0) nf_, --> N: -0.243663
  (0) nf_, --> : -0.121623
  (0) nf_, --> —: -0.096041
  (0) nf_, --> POST: -0.040943
  (0) nf_, --> .: -0.146649
  (0) nf_, --> !: -0.098980
  (0) nf_, --> ?: -0.083396
  (0) nf_, --> HELPVERB: -0.035121
  (0) nf_, --> ADV: -0.038163
  (0) nf_, --> NUM: -0.129324
  (0) nf_, --> ADVVNEG: -0.029933
  (0) nf_, --> ;: -0.105258
  (0) nf_, --> –: -0.094029
  (0) nf_, --> «: -0.077121
  (0) nf_, --> »: -0.063152
  (0) nf_, --> (: -0.044383
  (0) nf_, --> ): -0.048513
  (0) nf_, --> ..: -0.049713
  (0) suffix2_, --> CNJ: -0.082160
  (0) suffix2_, --> PN: -0.100664
  (0) suffix2_, --> V: -0.176206
  (0) suffix2_, --> ADJ: -0.134419
  (0) suffix2_, --> ,: 2.039453
  (0) suffix2_, --> N: -0.243663
  (0) suffix2_, --> : -0.121623
  (0) suffix2_, --> —: -0.096041
  (0) suffix2_, --> POST: -0.040943
  (0) suffix2_, --> .: -0.146649
  (0) suffix2_, --> !: -0.098980
  (0) suffix2_, --> ?: -0.083396
  (0) suffix2_, --> HELPVERB: -0.035121
  (0) suffix2_, --> ADV: -0.038163
  (0) suffix2_, --> NUM: -0.129324
  (0) suffix2_, --> ADVVNEG: -0.029933
  (0) suffix2_, --> ;: -0.105258
  (0) suffix2_, --> –: -0.094029
  (0) suffix2_, --> «: -0.077121
  (0) suffix2_, --> »: -0.063152
  (0) suffix2_, --> (: -0.044383
  (0) suffix2_, --> ): -0.048513
  (0) suffix2_, --> ..: -0.049713
  (0) suffix3_яле --> CNJ: -0.007926
  (0) suffix3_яле --> PN: -0.047932
  (0) suffix3_яле --> V: -0.042482
  (0) suffix3_яле --> ADJ: 0.493370
  (0) suffix3_яле --> ,: -0.000760
  (0) suffix3_яле --> N: -0.357778
  (0) suffix3_яле --> : -0.000824
  (0) suffix3_яле --> —: -0.000685
  (0) suffix3_яле --> POST: -0.005107
  (0) suffix3_яле --> .: -0.000571
  (0) suffix3_яле --> !: -0.000651
  (0) suffix3_яле --> ?: -0.000626
  (0) suffix3_яле --> HELPVERB: -0.001289
  (0) suffix3_яле --> ADV: -0.007300
  (0) suffix3_яле --> NUM: -0.013670
  (0) suffix3_яле --> ADVVNEG: -0.001627
  (0) suffix3_яле --> ;: -0.000525
  (0) suffix3_яле --> –: -0.000675
  (0) suffix3_яле --> «: -0.000648
  (0) suffix3_яле --> »: -0.000586
  (0) suffix3_яле --> (: -0.000531
  (0) suffix3_яле --> ): -0.000564
  (0) suffix3_яле --> ..: -0.000614
  (0) nf_кинаяле --> CNJ: -0.007926
  (0) nf_кинаяле --> PN: -0.047932
  (0) nf_кинаяле --> V: -0.042482
  (0) nf_кинаяле --> ADJ: 0.493370
  (0) nf_кинаяле --> ,: -0.000760
  (0) nf_кинаяле --> N: -0.357778
  (0) nf_кинаяле --> : -0.000824
  (0) nf_кинаяле --> —: -0.000685
  (0) nf_кинаяле --> POST: -0.005107
  (0) nf_кинаяле --> .: -0.000571
  (0) nf_кинаяле --> !: -0.000651
  (0) nf_кинаяле --> ?: -0.000626
  (0) nf_кинаяле --> HELPVERB: -0.001289
  (0) nf_кинаяле --> ADV: -0.007300
  (0) nf_кинаяле --> NUM: -0.013670
  (0) nf_кинаяле --> ADVVNEG: -0.001627
  (0) nf_кинаяле --> ;: -0.000525
  (0) nf_кинаяле --> –: -0.000675
  (0) nf_кинаяле --> «: -0.000648
  (0) nf_кинаяле --> »: -0.000586
  (0) nf_кинаяле --> (: -0.000531
  (0) nf_кинаяле --> ): -0.000564
  (0) nf_кинаяле --> ..: -0.000614
  (0) suffix2_ле --> CNJ: -0.195387
  (0) suffix2_ле --> PN: 0.483607
  (0) suffix2_ле --> V: -0.698134
  (0) suffix2_ле --> ADJ: 0.547932
  (0) suffix2_ле --> ,: -0.013608
  (0) suffix2_ле --> N: 0.399039
  (0) suffix2_ле --> : -0.011861
  (0) suffix2_ле --> —: -0.010210
  (0) suffix2_ле --> POST: -0.105702
  (0) suffix2_ле --> .: -0.013959
  (0) suffix2_ле --> !: -0.012136
  (0) suffix2_ле --> ?: -0.010049
  (0) suffix2_ле --> HELPVERB: -0.089955
  (0) suffix2_ле --> ADV: -0.067748
  (0) suffix2_ле --> NUM: -0.100470
  (0) suffix2_ле --> ADVVNEG: -0.031184
  (0) suffix2_ле --> ;: -0.010398
  (0) suffix2_ле --> –: -0.010576
  (0) suffix2_ле --> «: -0.009888
  (0) suffix2_ле --> »: -0.010610
  (0) suffix2_ле --> (: -0.009042
  (0) suffix2_ле --> ): -0.008622
  (0) suffix2_ле --> ..: -0.011039
  (0) suffix3_выш --> CNJ: -0.033691
  (0) suffix3_выш --> PN: -0.025834
  (0) suffix3_выш --> V: -0.077224
  (0) suffix3_выш --> ADJ: -0.048132
  (0) suffix3_выш --> ,: -0.000546
  (0) suffix3_выш --> N: 0.212156
  (0) suffix3_выш --> : -0.000511
  (0) suffix3_выш --> —: -0.000803
  (0) suffix3_выш --> POST: -0.007337
  (0) suffix3_выш --> .: -0.000635
  (0) suffix3_выш --> !: -0.000599
  (0) suffix3_выш --> ?: -0.000552
  (0) suffix3_выш --> HELPVERB: -0.001545
  (0) suffix3_выш --> ADV: -0.006878
  (0) suffix3_выш --> NUM: -0.001749
  (0) suffix3_выш --> ADVVNEG: -0.002098
  (0) suffix3_выш --> ;: -0.000679
  (0) suffix3_выш --> –: -0.000675
  (0) suffix3_выш --> «: -0.000524
  (0) suffix3_выш --> »: -0.000494
  (0) suffix3_выш --> (: -0.000439
  (0) suffix3_выш --> ): -0.000464
  (0) suffix3_выш --> ..: -0.000747
  (0) nf_тавыш --> CNJ: -0.033691
  (0) nf_тавыш --> PN: -0.025834
  (0) nf_тавыш --> V: -0.077224
  (0) nf_тавыш --> ADJ: -0.048132
  (0) nf_тавыш --> ,: -0.000546
  (0) nf_тавыш --> N: 0.212156
  (0) nf_тавыш --> : -0.000511
  (0) nf_тавыш --> —: -0.000803
  (0) nf_тавыш --> POST: -0.007337
  (0) nf_тавыш --> .: -0.000635
  (0) nf_тавыш --> !: -0.000599
  (0) nf_тавыш --> ?: -0.000552
  (0) nf_тавыш --> HELPVERB: -0.001545
  (0) nf_тавыш --> ADV: -0.006878
  (0) nf_тавыш --> NUM: -0.001749
  (0) nf_тавыш --> ADVVNEG: -0.002098
  (0) nf_тавыш --> ;: -0.000679
  (0) nf_тавыш --> –: -0.000675
  (0) nf_тавыш --> «: -0.000524
  (0) nf_тавыш --> »: -0.000494
  (0) nf_тавыш --> (: -0.000439
  (0) nf_тавыш --> ): -0.000464
  (0) nf_тавыш --> ..: -0.000747
  (0) suffix2_ыш --> CNJ: -0.066344
  (0) suffix2_ыш --> PN: -0.051299
  (0) suffix2_ыш --> V: -0.182836
  (0) suffix2_ыш --> ADJ: -0.138836
  (0) suffix2_ыш --> ,: -0.001485
  (0) suffix2_ыш --> N: 0.505241
  (0) suffix2_ыш --> : -0.001139
  (0) suffix2_ыш --> —: -0.001823
  (0) suffix2_ыш --> POST: -0.020094
  (0) suffix2_ыш --> .: -0.001897
  (0) suffix2_ыш --> !: -0.001508
  (0) suffix2_ыш --> ?: -0.001175
  (0) suffix2_ыш --> HELPVERB: -0.006680
  (0) suffix2_ыш --> ADV: -0.012662
  (0) suffix2_ыш --> NUM: -0.003306
  (0) suffix2_ыш --> ADVVNEG: -0.004904
  (0) suffix2_ыш --> ;: -0.002025
  (0) suffix2_ыш --> –: -0.001498
  (0) suffix2_ыш --> «: -0.001143
  (0) suffix2_ыш --> »: -0.001070
  (0) suffix2_ыш --> (: -0.000950
  (0) suffix2_ыш --> ): -0.001007
  (0) suffix2_ыш --> ..: -0.001561
  (0) suffix3_лән --> CNJ: 1.531369
  (0) suffix3_лән --> PN: -0.219567
  (0) suffix3_лән --> V: -0.420759
  (0) suffix3_лән --> ADJ: -0.285705
  (0) suffix3_лән --> ,: -0.004860
  (0) suffix3_лән --> N: -0.421572
  (0) suffix3_лән --> : -0.004602
  (0) suffix3_лән --> —: -0.003754
  (0) suffix3_лән --> POST: -0.037761
  (0) suffix3_лән --> .: -0.003049
  (0) suffix3_лән --> !: -0.002896
  (0) suffix3_лән --> ?: -0.003660
  (0) suffix3_лән --> HELPVERB: -0.009376
  (0) suffix3_лән --> ADV: -0.043057
  (0) suffix3_лән --> NUM: -0.029327
  (0) suffix3_лән --> ADVVNEG: -0.017268
  (0) suffix3_лән --> ;: -0.004477
  (0) suffix3_лән --> –: -0.003745
  (0) suffix3_лән --> «: -0.003445
  (0) suffix3_лән --> »: -0.003103
  (0) suffix3_лән --> (: -0.002820
  (0) suffix3_лән --> ): -0.002977
  (0) suffix3_лән --> ..: -0.003587
  (0) nf_белән --> CNJ: 1.531369
  (0) nf_белән --> PN: -0.219567
  (0) nf_белән --> V: -0.420759
  (0) nf_белән --> ADJ: -0.285705
  (0) nf_белән --> ,: -0.004860
  (0) nf_белән --> N: -0.421572
  (0) nf_белән --> : -0.004602
  (0) nf_белән --> —: -0.003754
  (0) nf_белән --> POST: -0.037761
  (0) nf_белән --> .: -0.003049
  (0) nf_белән --> !: -0.002896
  (0) nf_белән --> ?: -0.003660
  (0) nf_белән --> HELPVERB: -0.009376
  (0) nf_белән --> ADV: -0.043057
  (0) nf_белән --> NUM: -0.029327
  (0) nf_белән --> ADVVNEG: -0.017268
  (0) nf_белән --> ;: -0.004477
  (0) nf_белән --> –: -0.003745
  (0) nf_белән --> «: -0.003445
  (0) nf_белән --> »: -0.003103
  (0) nf_белән --> (: -0.002820
  (0) nf_белән --> ): -0.002977
  (0) nf_белән --> ..: -0.003587
  (0) suffix2_ән --> CNJ: 0.699270
  (0) suffix2_ән --> PN: 0.454088
  (0) suffix2_ән --> V: 0.176540
  (0) suffix2_ән --> ADJ: -0.327107
  (0) suffix2_ән --> ,: -0.037018
  (0) suffix2_ән --> N: -0.720609
  (0) suffix2_ән --> : -0.030730
  (0) suffix2_ән --> —: -0.028869
  (0) suffix2_ән --> POST: -0.178867
  (0) suffix2_ән --> .: -0.026741
  (0) suffix2_ән --> !: -0.026833
  (0) suffix2_ән --> ?: -0.026893
  (0) suffix2_ән --> HELPVERB: -0.053321
  (0) suffix2_ән --> ADV: -0.146952
  (0) suffix2_ән --> NUM: 0.510760
  (0) suffix2_ән --> ADVVNEG: -0.056765
  (0) suffix2_ән --> ;: -0.027711
  (0) suffix2_ән --> –: -0.028400
  (0) suffix2_ән --> «: -0.025951
  (0) suffix2_ән --> »: -0.025961
  (0) suffix2_ән --> (: -0.021026
  (0) suffix2_ән --> ): -0.021777
  (0) suffix2_ән --> ..: -0.029127
  (0) suffix3_ --> CNJ: -0.051470
  (0) suffix3_ --> PN: -0.072117
  (0) suffix3_ --> V: -0.116875
  (0) suffix3_ --> ADJ: -0.088882
  (0) suffix3_ --> ,: -0.137466
  (0) suffix3_ --> N: -0.151479
  (0) suffix3_ --> : 1.415315
  (0) suffix3_ --> —: -0.058713
  (0) suffix3_ --> POST: -0.027231
  (0) suffix3_ --> .: -0.115805
  (0) suffix3_ --> !: -0.071983
  (0) suffix3_ --> ?: -0.058351
  (0) suffix3_ --> HELPVERB: -0.020245
  (0) suffix3_ --> ADV: -0.023228
  (0) suffix3_ --> NUM: -0.084398
  (0) suffix3_ --> ADVVNEG: -0.021387
  (0) suffix3_ --> ;: -0.062253
  (0) suffix3_ --> –: -0.060826
  (0) suffix3_ --> «: -0.054347
  (0) suffix3_ --> »: -0.042144
  (0) suffix3_ --> (: -0.029344
  (0) suffix3_ --> ): -0.032379
  (0) suffix3_ --> ..: -0.034391
  (0) nf_ --> CNJ: -0.051470
  (0) nf_ --> PN: -0.072117
  (0) nf_ --> V: -0.116875
  (0) nf_ --> ADJ: -0.088882
  (0) nf_ --> ,: -0.137466
  (0) nf_ --> N: -0.151479
  (0) nf_ --> : 1.415315
  (0) nf_ --> —: -0.058713
  (0) nf_ --> POST: -0.027231
  (0) nf_ --> .: -0.115805
  (0) nf_ --> !: -0.071983
  (0) nf_ --> ?: -0.058351
  (0) nf_ --> HELPVERB: -0.020245
  (0) nf_ --> ADV: -0.023228
  (0) nf_ --> NUM: -0.084398
  (0) nf_ --> ADVVNEG: -0.021387
  (0) nf_ --> ;: -0.062253
  (0) nf_ --> –: -0.060826
  (0) nf_ --> «: -0.054347
  (0) nf_ --> »: -0.042144
  (0) nf_ --> (: -0.029344
  (0) nf_ --> ): -0.032379
  (0) nf_ --> ..: -0.034391
  (0) suffix2_ --> CNJ: -0.051470
  (0) suffix2_ --> PN: -0.072117
  (0) suffix2_ --> V: -0.116875
  (0) suffix2_ --> ADJ: -0.088882
  (0) suffix2_ --> ,: -0.137466
  (0) suffix2_ --> N: -0.151479
  (0) suffix2_ --> : 1.415315
  (0) suffix2_ --> —: -0.058713
  (0) suffix2_ --> POST: -0.027231
  (0) suffix2_ --> .: -0.115805
  (0) suffix2_ --> !: -0.071983
  (0) suffix2_ --> ?: -0.058351
  (0) suffix2_ --> HELPVERB: -0.020245
  (0) suffix2_ --> ADV: -0.023228
  (0) suffix2_ --> NUM: -0.084398
  (0) suffix2_ --> ADVVNEG: -0.021387
  (0) suffix2_ --> ;: -0.062253
  (0) suffix2_ --> –: -0.060826
  (0) suffix2_ --> «: -0.054347
  (0) suffix2_ --> »: -0.042144
  (0) suffix2_ --> (: -0.029344
  (0) suffix2_ --> ): -0.032379
  (0) suffix2_ --> ..: -0.034391
  (0) suffix3_— --> CNJ: -0.058649
  (0) suffix3_— --> PN: -0.065284
  (0) suffix3_— --> V: -0.100548
  (0) suffix3_— --> ADJ: -0.070762
  (0) suffix3_— --> ,: -0.103265
  (0) suffix3_— --> N: -0.146461
  (0) suffix3_— --> : -0.066664
  (0) suffix3_— --> —: 1.329719
  (0) suffix3_— --> POST: -0.024453
  (0) suffix3_— --> .: -0.088227
  (0) suffix3_— --> !: -0.066917
  (0) suffix3_— --> ?: -0.057168
  (0) suffix3_— --> HELPVERB: -0.019686
  (0) suffix3_— --> ADV: -0.024100
  (0) suffix3_— --> NUM: -0.064868
  (0) suffix3_— --> ADVVNEG: -0.016371
  (0) suffix3_— --> ;: -0.065708
  (0) suffix3_— --> –: -0.080510
  (0) suffix3_— --> «: -0.066170
  (0) suffix3_— --> »: -0.044976
  (0) suffix3_— --> (: -0.031982
  (0) suffix3_— --> ): -0.035371
  (0) suffix3_— --> ..: -0.031577
  (0) nf_— --> CNJ: -0.058649
  (0) nf_— --> PN: -0.065284
  (0) nf_— --> V: -0.100548
  (0) nf_— --> ADJ: -0.070762
  (0) nf_— --> ,: -0.103265
  (0) nf_— --> N: -0.146461
  (0) nf_— --> : -0.066664
  (0) nf_— --> —: 1.329719
  (0) nf_— --> POST: -0.024453
  (0) nf_— --> .: -0.088227
  (0) nf_— --> !: -0.066917
  (0) nf_— --> ?: -0.057168
  (0) nf_— --> HELPVERB: -0.019686
  (0) nf_— --> ADV: -0.024100
  (0) nf_— --> NUM: -0.064868
  (0) nf_— --> ADVVNEG: -0.016371
  (0) nf_— --> ;: -0.065708
  (0) nf_— --> –: -0.080510
  (0) nf_— --> «: -0.066170
  (0) nf_— --> »: -0.044976
  (0) nf_— --> (: -0.031982
  (0) nf_— --> ): -0.035371
  (0) nf_— --> ..: -0.031577
  (0) suffix2_— --> CNJ: -0.058649
  (0) suffix2_— --> PN: -0.065284
  (0) suffix2_— --> V: -0.100548
  (0) suffix2_— --> ADJ: -0.070762
  (0) suffix2_— --> ,: -0.103265
  (0) suffix2_— --> N: -0.146461
  (0) suffix2_— --> : -0.066664
  (0) suffix2_— --> —: 1.329719
  (0) suffix2_— --> POST: -0.024453
  (0) suffix2_— --> .: -0.088227
  (0) suffix2_— --> !: -0.066917
  (0) suffix2_— --> ?: -0.057168
  (0) suffix2_— --> HELPVERB: -0.019686
  (0) suffix2_— --> ADV: -0.024100
  (0) suffix2_— --> NUM: -0.064868
  (0) suffix2_— --> ADVVNEG: -0.016371
  (0) suffix2_— --> ;: -0.065708
  (0) suffix2_— --> –: -0.080510
  (0) suffix2_— --> «: -0.066170
  (0) suffix2_— --> »: -0.044976
  (0) suffix2_— --> (: -0.031982
  (0) suffix2_— --> ): -0.035371
  (0) suffix2_— --> ..: -0.031577
  (0) suffix3_уың --> CNJ: -0.008981
  (0) suffix3_уың --> PN: -0.036246
  (0) suffix3_уың --> V: 0.354160
  (0) suffix3_уың --> ADJ: -0.007048
  (0) suffix3_уың --> ,: -0.001652
  (0) suffix3_уың --> N: -0.274833
  (0) suffix3_уың --> : -0.001462
  (0) suffix3_уың --> —: -0.001579
  (0) suffix3_уың --> POST: -0.000618
  (0) suffix3_уың --> .: -0.001876
  (0) suffix3_уың --> !: -0.001610
  (0) suffix3_уың --> ?: -0.001511
  (0) suffix3_уың --> HELPVERB: -0.000753
  (0) suffix3_уың --> ADV: -0.000672
  (0) suffix3_уың --> NUM: -0.004557
  (0) suffix3_уың --> ADVVNEG: -0.000762
  (0) suffix3_уың --> ;: -0.001408
  (0) suffix3_уың --> –: -0.001613
  (0) suffix3_уың --> «: -0.001526
  (0) suffix3_уың --> »: -0.001369
  (0) suffix3_уың --> (: -0.001186
  (0) suffix3_уың --> ): -0.001245
  (0) suffix3_уың --> ..: -0.001652
  (0) nf_табын --> CNJ: -0.014387
  (0) nf_табын --> PN: -0.043430
  (0) nf_табын --> V: 0.527150
  (0) nf_табын --> ADJ: -0.035043
  (0) nf_табын --> ,: -0.002115
  (0) nf_табын --> N: -0.393009
  (0) nf_табын --> : -0.001920
  (0) nf_табын --> —: -0.001859
  (0) nf_табын --> POST: -0.002168
  (0) nf_табын --> .: -0.002286
  (0) nf_табын --> !: -0.001913
  (0) nf_табын --> ?: -0.001948
  (0) nf_табын --> HELPVERB: -0.001366
  (0) nf_табын --> ADV: -0.003254
  (0) nf_табын --> NUM: -0.009177
  (0) nf_табын --> ADVVNEG: -0.001311
  (0) nf_табын --> ;: -0.001644
  (0) nf_табын --> –: -0.001882
  (0) nf_табын --> «: -0.001828
  (0) nf_табын --> »: -0.001642
  (0) nf_табын --> (: -0.001429
  (0) nf_табын --> ): -0.001503
  (0) nf_табын --> ..: -0.002035
  (0) suffix2_ың --> CNJ: -0.224226
  (0) suffix2_ың --> PN: 0.878691
  (0) suffix2_ың --> V: 0.046963
  (0) suffix2_ың --> ADJ: -0.497169
  (0) suffix2_ың --> ,: -0.021214
  (0) suffix2_ың --> N: 0.348153
  (0) suffix2_ың --> : -0.017719
  (0) suffix2_ың --> —: -0.015595
  (0) suffix2_ың --> POST: -0.102083
  (0) suffix2_ың --> .: -0.021310
  (0) suffix2_ың --> !: -0.016850
  (0) suffix2_ың --> ?: -0.015005
  (0) suffix2_ың --> HELPVERB: -0.032062
  (0) suffix2_ың --> ADV: -0.078149
  (0) suffix2_ың --> NUM: -0.103393
  (0) suffix2_ың --> ADVVNEG: -0.028380
  (0) suffix2_ың --> ;: -0.015525
  (0) suffix2_ың --> –: -0.015539
  (0) suffix2_ың --> «: -0.014480
  (0) suffix2_ың --> »: -0.013385
  (0) suffix2_ың --> (: -0.011822
  (0) suffix2_ың --> ): -0.012264
  (0) suffix2_ың --> ..: -0.017639
  (0) suffix3_чен --> CNJ: 0.532256
  (0) suffix3_чен --> PN: -0.421496
  (0) suffix3_чен --> V: -0.345762
  (0) suffix3_чен --> ADJ: -0.169372
  (0) suffix3_чен --> ,: -0.006828
  (0) suffix3_чен --> N: -0.584948
  (0) suffix3_чен --> : -0.006118
  (0) suffix3_чен --> —: -0.005203
  (0) suffix3_чен --> POST: 1.214408
  (0) suffix3_чен --> .: -0.006239
  (0) suffix3_чен --> !: -0.004939
  (0) suffix3_чен --> ?: -0.004490
  (0) suffix3_чен --> HELPVERB: -0.091033
  (0) suffix3_чен --> ADV: -0.016049
  (0) suffix3_чен --> NUM: -0.041250
  (0) suffix3_чен --> ADVVNEG: -0.010634
  (0) suffix3_чен --> ;: -0.007016
  (0) suffix3_чен --> –: -0.004662
  (0) suffix3_чен --> «: -0.004246
  (0) suffix3_чен --> »: -0.003957
  (0) suffix3_чен --> (: -0.003573
  (0) suffix3_чен --> ): -0.003788
  (0) suffix3_чен --> ..: -0.005063
  (0) nf_өчен --> CNJ: -0.273704
  (0) nf_өчен --> PN: -0.293749
  (0) nf_өчен --> V: -0.222920
  (0) nf_өчен --> ADJ: -0.124562
  (0) nf_өчен --> ,: -0.005161
  (0) nf_өчен --> N: -0.362978
  (0) nf_өчен --> : -0.004601
  (0) nf_өчен --> —: -0.003338
  (0) nf_өчен --> POST: 1.439096
  (0) nf_өчен --> .: -0.005243
  (0) nf_өчен --> !: -0.003886
  (0) nf_өчен --> ?: -0.003163
  (0) nf_өчен --> HELPVERB: -0.061726
  (0) nf_өчен --> ADV: -0.011969
  (0) nf_өчен --> NUM: -0.032364
  (0) nf_өчен --> ADVVNEG: -0.007354
  (0) nf_өчен --> ;: -0.004365
  (0) nf_өчен --> –: -0.003120
  (0) nf_өчен --> «: -0.003022
  (0) nf_өчен --> »: -0.002817
  (0) nf_өчен --> (: -0.002541
  (0) nf_өчен --> ): -0.002693
  (0) nf_өчен --> ..: -0.003820
  (0) suffix3_мәт --> CNJ: -0.080783
  (0) suffix3_мәт --> PN: -0.069273
  (0) suffix3_мәт --> V: 0.222107
  (0) suffix3_мәт --> ADJ: -0.163870
  (0) suffix3_мәт --> ,: -0.002909
  (0) suffix3_мәт --> N: 0.208402
  (0) suffix3_мәт --> : -0.002327
  (0) suffix3_мәт --> —: -0.002159
  (0) suffix3_мәт --> POST: -0.027789
  (0) suffix3_мәт --> .: -0.001867
  (0) suffix3_мәт --> !: -0.002316
  (0) suffix3_мәт --> ?: -0.002152
  (0) suffix3_мәт --> HELPVERB: -0.006078
  (0) suffix3_мәт --> ADV: -0.022770
  (0) suffix3_мәт --> NUM: -0.024291
  (0) suffix3_мәт --> ADVVNEG: -0.006368
  (0) suffix3_мәт --> ;: -0.002555
  (0) suffix3_мәт --> –: -0.002185
  (0) suffix3_мәт --> «: -0.002074
  (0) suffix3_мәт --> »: -0.003203
  (0) suffix3_мәт --> (: -0.001712
  (0) suffix3_мәт --> ): -0.001805
  (0) suffix3_мәт --> ..: -0.002023
  (0) nf_рәхмәт --> CNJ: -0.016590
  (0) nf_рәхмәт --> PN: -0.015945
  (0) nf_рәхмәт --> V: -0.265433
  (0) nf_рәхмәт --> ADJ: -0.033734
  (0) nf_рәхмәт --> ,: -0.000993
  (0) nf_рәхмәт --> N: 0.369913
  (0) nf_рәхмәт --> : -0.000567
  (0) nf_рәхмәт --> —: -0.000601
  (0) nf_рәхмәт --> POST: -0.010710
  (0) nf_рәхмәт --> .: -0.000756
  (0) nf_рәхмәт --> !: -0.001169
  (0) nf_рәхмәт --> ?: -0.000684
  (0) nf_рәхмәт --> HELPVERB: -0.001432
  (0) nf_рәхмәт --> ADV: -0.006373
  (0) nf_рәхмәт --> NUM: -0.008044
  (0) nf_рәхмәт --> ADVVNEG: -0.001273
  (0) nf_рәхмәт --> ;: -0.000517
  (0) nf_рәхмәт --> –: -0.000670
  (0) nf_рәхмәт --> «: -0.000673
  (0) nf_рәхмәт --> »: -0.001933
  (0) nf_рәхмәт --> (: -0.000564
  (0) nf_рәхмәт --> ): -0.000597
  (0) nf_рәхмәт --> ..: -0.000656
  (0) suffix2_әт --> CNJ: -0.098342
  (0) suffix2_әт --> PN: -0.095590
  (0) suffix2_әт --> V: 0.054367
  (0) suffix2_әт --> ADJ: -0.257223
  (0) suffix2_әт --> ,: -0.004050
  (0) suffix2_әт --> N: 0.582493
  (0) suffix2_әт --> : -0.003471
  (0) suffix2_әт --> —: -0.003047
  (0) suffix2_әт --> POST: -0.035665
  (0) suffix2_әт --> .: -0.002657
  (0) suffix2_әт --> !: -0.003123
  (0) suffix2_әт --> ?: -0.003003
  (0) suffix2_әт --> HELPVERB: -0.008367
  (0) suffix2_әт --> ADV: -0.040248
  (0) suffix2_әт --> NUM: -0.052256
  (0) suffix2_әт --> ADVVNEG: -0.008628
  (0) suffix2_әт --> ;: -0.003478
  (0) suffix2_әт --> –: -0.003074
  (0) suffix2_әт --> «: -0.002889
  (0) suffix2_әт --> »: -0.003979
  (0) suffix2_әт --> (: -0.002396
  (0) suffix2_әт --> ): -0.002529
  (0) suffix2_әт --> ..: -0.002841
  (0) suffix3_иде --> CNJ: -0.312583
  (0) suffix3_иде --> PN: -0.251224
  (0) suffix3_иде --> V: 0.241158
  (0) suffix3_иде --> ADJ: -0.235114
  (0) suffix3_иде --> ,: -0.008470
  (0) suffix3_иде --> N: -0.217045
  (0) suffix3_иде --> : -0.007404
  (0) suffix3_иде --> —: -0.006817
  (0) suffix3_иде --> POST: -0.106153
  (0) suffix3_иде --> .: -0.012287
  (0) suffix3_иде --> !: -0.010293
  (0) suffix3_иде --> ?: -0.007394
  (0) suffix3_иде --> HELPVERB: 1.110552
  (0) suffix3_иде --> ADV: -0.031769
  (0) suffix3_иде --> NUM: -0.057325
  (0) suffix3_иде --> ADVVNEG: -0.029670
  (0) suffix3_иде --> ;: -0.007035
  (0) suffix3_иде --> –: -0.007923
  (0) suffix3_иде --> «: -0.007400
  (0) suffix3_иде --> »: -0.008980
  (0) suffix3_иде --> (: -0.010690
  (0) suffix3_иде --> ): -0.007573
  (0) suffix3_иде --> ..: -0.008561
  (0) nf_ди --> CNJ: -0.295976
  (0) nf_ди --> PN: -0.260692
  (0) nf_ди --> V: 1.059075
  (0) nf_ди --> ADJ: -0.324166
  (0) nf_ди --> ,: -0.007738
  (0) nf_ди --> N: -0.755842
  (0) nf_ди --> : -0.007462
  (0) nf_ди --> —: -0.007273
  (0) nf_ди --> POST: -0.105456
  (0) nf_ди --> .: -0.006484
  (0) nf_ди --> !: -0.006389
  (0) nf_ди --> ?: -0.006646
  (0) nf_ди --> HELPVERB: 0.899256
  (0) nf_ди --> ADV: -0.039669
  (0) nf_ди --> NUM: -0.062116
  (0) nf_ди --> ADVVNEG: -0.023753
  (0) nf_ди --> ;: -0.008396
  (0) nf_ди --> –: -0.006919
  (0) nf_ди --> «: -0.006510
  (0) nf_ди --> »: -0.006448
  (0) nf_ди --> (: -0.007154
  (0) nf_ди --> ): -0.006736
  (0) nf_ди --> ..: -0.006507
  (0) suffix2_де --> CNJ: 0.757166
  (0) suffix2_де --> PN: -0.404294
  (0) suffix2_де --> V: 0.299694
  (0) suffix2_де --> ADJ: -0.474861
  (0) suffix2_де --> ,: -0.015601
  (0) suffix2_де --> N: -0.607596
  (0) suffix2_де --> : -0.012630
  (0) suffix2_де --> —: -0.011218
  (0) suffix2_де --> POST: -0.233626
  (0) suffix2_де --> .: -0.023095
  (0) suffix2_де --> !: -0.017639
  (0) suffix2_де --> ?: -0.012390
  (0) suffix2_де --> HELPVERB: 1.022779
  (0) suffix2_де --> ADV: -0.046928
  (0) suffix2_де --> NUM: -0.085181
  (0) suffix2_де --> ADVVNEG: -0.041079
  (0) suffix2_де --> ;: -0.012383
  (0) suffix2_де --> –: -0.012782
  (0) suffix2_де --> «: -0.012295
  (0) suffix2_де --> »: -0.013764
  (0) suffix2_де --> (: -0.015234
  (0) suffix2_де --> ): -0.011741
  (0) suffix2_де --> ..: -0.015302
  (0) suffix3_. --> CNJ: -0.072661
  (0) suffix3_. --> PN: -0.083765
  (0) suffix3_. --> V: -0.172933
  (0) suffix3_. --> ADJ: -0.078087
  (0) suffix3_. --> ,: -0.167698
  (0) suffix3_. --> N: -0.177129
  (0) suffix3_. --> : -0.103325
  (0) suffix3_. --> —: -0.087655
  (0) suffix3_. --> POST: -0.042080
  (0) suffix3_. --> .: 1.861674
  (0) suffix3_. --> !: -0.109993
  (0) suffix3_. --> ?: -0.090294
  (0) suffix3_. --> HELPVERB: -0.033197
  (0) suffix3_. --> ADV: -0.030245
  (0) suffix3_. --> NUM: -0.090770
  (0) suffix3_. --> ADVVNEG: -0.027102
  (0) suffix3_. --> ;: -0.096561
  (0) suffix3_. --> –: -0.096089
  (0) suffix3_. --> «: -0.080851
  (0) suffix3_. --> »: -0.067946
  (0) suffix3_. --> (: -0.048510
  (0) suffix3_. --> ): -0.053442
  (0) suffix3_. --> ..: -0.051341
  (0) nf_. --> CNJ: -0.072661
  (0) nf_. --> PN: -0.083765
  (0) nf_. --> V: -0.172933
  (0) nf_. --> ADJ: -0.078087
  (0) nf_. --> ,: -0.167698
  (0) nf_. --> N: -0.177129
  (0) nf_. --> : -0.103325
  (0) nf_. --> —: -0.087655
  (0) nf_. --> POST: -0.042080
  (0) nf_. --> .: 1.861674
  (0) nf_. --> !: -0.109993
  (0) nf_. --> ?: -0.090294
  (0) nf_. --> HELPVERB: -0.033197
  (0) nf_. --> ADV: -0.030245
  (0) nf_. --> NUM: -0.090770
  (0) nf_. --> ADVVNEG: -0.027102
  (0) nf_. --> ;: -0.096561
  (0) nf_. --> –: -0.096089
  (0) nf_. --> «: -0.080851
  (0) nf_. --> »: -0.067946
  (0) nf_. --> (: -0.048510
  (0) nf_. --> ): -0.053442
  (0) nf_. --> ..: -0.051341
  (0) suffix2_. --> CNJ: -0.072661
  (0) suffix2_. --> PN: -0.083765
  (0) suffix2_. --> V: -0.172933
  (0) suffix2_. --> ADJ: -0.078087
  (0) suffix2_. --> ,: -0.167698
  (0) suffix2_. --> N: -0.177129
  (0) suffix2_. --> : -0.103325
  (0) suffix2_. --> —: -0.087655
  (0) suffix2_. --> POST: -0.042080
  (0) suffix2_. --> .: 1.861674
  (0) suffix2_. --> !: -0.109993
  (0) suffix2_. --> ?: -0.090294
  (0) suffix2_. --> HELPVERB: -0.033197
  (0) suffix2_. --> ADV: -0.030245
  (0) suffix2_. --> NUM: -0.090770
  (0) suffix2_. --> ADVVNEG: -0.027102
  (0) suffix2_. --> ;: -0.096561
  (0) suffix2_. --> –: -0.096089
  (0) suffix2_. --> «: -0.080851
  (0) suffix2_. --> »: -0.067946
  (0) suffix2_. --> (: -0.048510
  (0) suffix2_. --> ): -0.053442
  (0) suffix2_. --> ..: -0.051341
  (0) suffix3_Тик --> CNJ: 0.806206
  (0) suffix3_Тик --> PN: -0.172465
  (0) suffix3_Тик --> V: -0.074728
  (0) suffix3_Тик --> ADJ: -0.071356
  (0) suffix3_Тик --> ,: -0.013135
  (0) suffix3_Тик --> N: -0.230299
  (0) suffix3_Тик --> : -0.012258
  (0) suffix3_Тик --> —: -0.010594
  (0) suffix3_Тик --> POST: -0.007783
  (0) suffix3_Тик --> .: -0.010864
  (0) suffix3_Тик --> !: -0.009931
  (0) suffix3_Тик --> ?: -0.009318
  (0) suffix3_Тик --> HELPVERB: -0.019680
  (0) suffix3_Тик --> ADV: -0.008257
  (0) suffix3_Тик --> NUM: -0.060005
  (0) suffix3_Тик --> ADVVNEG: -0.032149
  (0) suffix3_Тик --> ;: -0.009117
  (0) suffix3_Тик --> –: -0.010176
  (0) suffix3_Тик --> «: -0.010245
  (0) suffix3_Тик --> »: -0.008432
  (0) suffix3_Тик --> (: -0.007339
  (0) suffix3_Тик --> ): -0.007687
  (0) suffix3_Тик --> ..: -0.010388
  (0) nf_тик --> CNJ: 1.430603
  (0) nf_тик --> PN: -0.233571
  (0) nf_тик --> V: -0.102909
  (0) nf_тик --> ADJ: -0.425506
  (0) nf_тик --> ,: -0.015209
  (0) nf_тик --> N: -0.313546
  (0) nf_тик --> : -0.014103
  (0) nf_тик --> —: -0.011685
  (0) nf_тик --> POST: -0.024703
  (0) nf_тик --> .: -0.012411
  (0) nf_тик --> !: -0.011287
  (0) nf_тик --> ?: -0.010502
  (0) nf_тик --> HELPVERB: -0.035158
  (0) nf_тик --> ADV: -0.017740
  (0) nf_тик --> NUM: -0.080363
  (0) nf_тик --> ADVVNEG: -0.050796
  (0) nf_тик --> ;: -0.010299
  (0) nf_тик --> –: -0.011235
  (0) nf_тик --> «: -0.011370
  (0) nf_тик --> »: -0.009535
  (0) nf_тик --> (: -0.008288
  (0) nf_тик --> ): -0.008694
  (0) nf_тик --> ..: -0.011691
  (0) suffix2_ик --> CNJ: 0.804783
  (0) suffix2_ик --> PN: -0.442751
  (0) suffix2_ик --> V: -0.690084
  (0) suffix2_ик --> ADJ: 0.285399
  (0) suffix2_ик --> ,: -0.027897
  (0) suffix2_ик --> N: -0.309122
  (0) suffix2_ик --> : -0.026047
  (0) suffix2_ик --> —: -0.022329
  (0) suffix2_ик --> POST: -0.093778
  (0) suffix2_ик --> .: -0.023020
  (0) suffix2_ик --> !: -0.021414
  (0) suffix2_ик --> ?: -0.020949
  (0) suffix2_ик --> HELPVERB: -0.092605
  (0) suffix2_ик --> ADV: -0.121598
  (0) suffix2_ик --> NUM: -0.173481
  (0) suffix2_ик --> ADVVNEG: 1.115087
  (0) suffix2_ик --> ;: -0.020265
  (0) suffix2_ик --> –: -0.022825
  (0) suffix2_ик --> «: -0.022810
  (0) suffix2_ик --> »: -0.018631
  (0) suffix2_ик --> (: -0.016369
  (0) suffix2_ик --> ): -0.017253
  (0) suffix2_ик --> ..: -0.022042
  (0) suffix3_ысы --> CNJ: -0.018515
  (0) suffix3_ысы --> PN: 0.581717
  (0) suffix3_ысы --> V: -0.129453
  (0) suffix3_ысы --> ADJ: -0.083602
  (0) suffix3_ысы --> ,: -0.001224
  (0) suffix3_ысы --> N: -0.298646
  (0) suffix3_ысы --> : -0.000835
  (0) suffix3_ысы --> —: -0.001511
  (0) suffix3_ысы --> POST: -0.011115
  (0) suffix3_ысы --> .: -0.000798
  (0) suffix3_ысы --> !: -0.000956
  (0) suffix3_ысы --> ?: -0.000939
  (0) suffix3_ысы --> HELPVERB: -0.004188
  (0) suffix3_ысы --> ADV: -0.009512
  (0) suffix3_ысы --> NUM: -0.011716
  (0) suffix3_ысы --> ADVVNEG: -0.001796
  (0) suffix3_ысы --> ;: -0.001446
  (0) suffix3_ысы --> –: -0.001171
  (0) suffix3_ысы --> «: -0.000943
  (0) suffix3_ысы --> »: -0.000855
  (0) suffix3_ысы --> (: -0.000773
  (0) suffix3_ысы --> ): -0.000820
  (0) suffix3_ысы --> ..: -0.000903
  (0) suffix2_сы --> CNJ: -0.067010
  (0) suffix2_сы --> PN: 0.478559
  (0) suffix2_сы --> V: -0.352772
  (0) suffix2_сы --> ADJ: -0.246206
  (0) suffix2_сы --> ,: -0.003377
  (0) suffix2_сы --> N: 0.321818
  (0) suffix2_сы --> : -0.002971
  (0) suffix2_сы --> —: -0.003909
  (0) suffix2_сы --> POST: -0.028398
  (0) suffix2_сы --> .: -0.002665
  (0) suffix2_сы --> !: -0.002594
  (0) suffix2_сы --> ?: -0.003125
  (0) suffix2_сы --> HELPVERB: -0.009227
  (0) suffix2_сы --> ADV: -0.019847
  (0) suffix2_сы --> NUM: -0.031916
  (0) suffix2_сы --> ADVVNEG: -0.006344
  (0) suffix2_сы --> ;: -0.003829
  (0) suffix2_сы --> –: -0.003097
  (0) suffix2_сы --> «: -0.002714
  (0) suffix2_сы --> »: -0.002481
  (0) suffix2_сы --> (: -0.002228
  (0) suffix2_сы --> ): -0.002365
  (0) suffix2_сы --> ..: -0.003300
  (0) suffix3_бар --> CNJ: -0.115550
  (0) suffix3_бар --> PN: -0.199476
  (0) suffix3_бар --> V: 0.868528
  (0) suffix3_бар --> ADJ: -0.106993
  (0) suffix3_бар --> ,: -0.003435
  (0) suffix3_бар --> N: -0.279180
  (0) suffix3_бар --> : -0.002899
  (0) suffix3_бар --> —: -0.002652
  (0) suffix3_бар --> POST: -0.031182
  (0) suffix3_бар --> .: -0.002641
  (0) suffix3_бар --> !: -0.002638
  (0) suffix3_бар --> ?: -0.002847
  (0) suffix3_бар --> HELPVERB: -0.029086
  (0) suffix3_бар --> ADV: -0.023854
  (0) suffix3_бар --> NUM: -0.035569
  (0) suffix3_бар --> ADVVNEG: -0.013053
  (0) suffix3_бар --> ;: -0.002437
  (0) suffix3_бар --> –: -0.002732
  (0) suffix3_бар --> «: -0.002670
  (0) suffix3_бар --> »: -0.002421
  (0) suffix3_бар --> (: -0.002182
  (0) suffix3_бар --> ): -0.002307
  (0) suffix3_бар --> ..: -0.002724
  (0) nf_бар --> CNJ: 0.575661
  (0) nf_бар --> PN: -0.328838
  (0) nf_бар --> V: 1.307769
  (0) nf_бар --> ADJ: -0.398835
  (0) nf_бар --> ,: -0.007343
  (0) nf_бар --> N: -0.848144
  (0) nf_бар --> : -0.006102
  (0) nf_бар --> —: -0.005647
  (0) nf_бар --> POST: -0.077121
  (0) nf_бар --> .: -0.007019
  (0) nf_бар --> !: -0.006002
  (0) nf_бар --> ?: -0.006121
  (0) nf_бар --> HELPVERB: -0.040802
  (0) nf_бар --> ADV: -0.034431
  (0) nf_бар --> NUM: -0.060120
  (0) nf_бар --> ADVVNEG: -0.019900
  (0) nf_бар --> ;: -0.005251
  (0) nf_бар --> –: -0.005543
  (0) nf_бар --> «: -0.005358
  (0) nf_бар --> »: -0.005217
  (0) nf_бар --> (: -0.004504
  (0) nf_бар --> ): -0.004642
  (0) nf_бар --> ..: -0.006490
  (0) suffix2_ар --> CNJ: -0.395446
  (0) suffix2_ар --> PN: 0.257964
  (0) suffix2_ар --> V: 0.770137
  (0) suffix2_ар --> ADJ: -0.246137
  (0) suffix2_ар --> ,: -0.034354
  (0) suffix2_ар --> N: 0.533377
  (0) suffix2_ар --> : -0.028229
  (0) suffix2_ар --> —: -0.026481
  (0) suffix2_ар --> POST: -0.153838
  (0) suffix2_ар --> .: -0.034852
  (0) suffix2_ар --> !: -0.027948
  (0) suffix2_ар --> ?: -0.024298
  (0) suffix2_ар --> HELPVERB: -0.078208
  (0) suffix2_ар --> ADV: -0.127094
  (0) suffix2_ар --> NUM: -0.161863
  (0) suffix2_ар --> ADVVNEG: -0.055367
  (0) suffix2_ар --> ;: -0.026439
  (0) suffix2_ар --> –: -0.026263
  (0) suffix2_ар --> «: -0.024205
  (0) suffix2_ар --> »: -0.022117
  (0) suffix2_ар --> (: -0.019754
  (0) suffix2_ар --> ): -0.020204
  (0) suffix2_ар --> ..: -0.028377
  (0) suffix3_зең --> CNJ: -0.022183
  (0) suffix3_зең --> PN: 0.250090
  (0) suffix3_зең --> V: -0.056657
  (0) suffix3_зең --> ADJ: -0.021614
  (0) suffix3_зең --> ,: -0.000541
  (0) suffix3_зең --> N: -0.119153
  (0) suffix3_зең --> : -0.000465
  (0) suffix3_зең --> —: -0.001122
  (0) suffix3_зең --> POST: -0.013378
  (0) suffix3_зең --> .: -0.000563
  (0) suffix3_зең --> !: -0.000555
  (0) suffix3_зең --> ?: -0.000528
  (0) suffix3_зең --> HELPVERB: -0.003854
  (0) suffix3_зең --> ADV: -0.001348
  (0) suffix3_зең --> NUM: -0.002754
  (0) suffix3_зең --> ADVVNEG: -0.001036
  (0) suffix3_зең --> ;: -0.000803
  (0) suffix3_зең --> –: -0.001042
  (0) suffix3_зең --> «: -0.000539
  (0) suffix3_зең --> »: -0.000502
  (0) suffix3_зең --> (: -0.000461
  (0) suffix3_зең --> ): -0.000489
  (0) suffix3_зең --> ..: -0.000502
  (0) suffix2_ең --> CNJ: -0.187988
  (0) suffix2_ең --> PN: 1.141576
  (0) suffix2_ең --> V: -0.294767
  (0) suffix2_ең --> ADJ: -0.529461
  (0) suffix2_ең --> ,: -0.019587
  (0) suffix2_ең --> N: 0.378107
  (0) suffix2_ең --> : -0.016628
  (0) suffix2_ең --> —: -0.013723
  (0) suffix2_ең --> POST: -0.084043
  (0) suffix2_ең --> .: -0.016334
  (0) suffix2_ең --> !: -0.014069
  (0) suffix2_ең --> ?: -0.013590
  (0) suffix2_ең --> HELPVERB: -0.030046
  (0) suffix2_ең --> ADV: -0.063544
  (0) suffix2_ең --> NUM: -0.119870
  (0) suffix2_ең --> ADVVNEG: -0.027461
  (0) suffix2_ең --> ;: -0.014018
  (0) suffix2_ең --> –: -0.014272
  (0) suffix2_ең --> «: -0.012786
  (0) suffix2_ең --> »: -0.011893
  (0) suffix2_ең --> (: -0.010463
  (0) suffix2_ең --> ): -0.011046
  (0) suffix2_ең --> ..: -0.014094
  (0) suffix3_ның --> CNJ: -0.130315
  (0) suffix3_ның --> PN: 0.741151
  (0) suffix3_ның --> V: -0.744801
  (0) suffix3_ның --> ADJ: -0.321839
  (0) suffix3_ның --> ,: -0.015225
  (0) suffix3_ның --> N: 0.793657
  (0) suffix3_ның --> : -0.012820
  (0) suffix3_ның --> —: -0.009934
  (0) suffix3_ның --> POST: -0.055684
  (0) suffix3_ның --> .: -0.012761
  (0) suffix3_ның --> !: -0.010322
  (0) suffix3_ның --> ?: -0.009985
  (0) suffix3_ның --> HELPVERB: -0.017405
  (0) suffix3_ның --> ADV: -0.034264
  (0) suffix3_ның --> NUM: -0.078718
  (0) suffix3_ның --> ADVVNEG: -0.015728
  (0) suffix3_ның --> ;: -0.010127
  (0) suffix3_ның --> –: -0.010340
  (0) suffix3_ның --> «: -0.009489
  (0) suffix3_ның --> »: -0.008587
  (0) suffix3_ның --> (: -0.007564
  (0) suffix3_ның --> ): -0.007963
  (0) suffix3_ның --> ..: -0.010936
  (0) nf_алла --> CNJ: -0.002948
  (0) nf_алла --> PN: -0.104805
  (0) nf_алла --> V: -0.040639
  (0) nf_алла --> ADJ: -0.014670
  (0) nf_алла --> ,: -0.003114
  (0) nf_алла --> N: 0.197725
  (0) nf_алла --> : -0.002314
  (0) nf_алла --> —: -0.001183
  (0) nf_алла --> POST: -0.001202
  (0) nf_алла --> .: -0.003595
  (0) nf_алла --> !: -0.002064
  (0) nf_алла --> ?: -0.001205
  (0) nf_алла --> HELPVERB: -0.001144
  (0) nf_алла --> ADV: -0.000736
  (0) nf_алла --> NUM: -0.008390
  (0) nf_алла --> ADVVNEG: -0.000809
  (0) nf_алла --> ;: -0.001676
  (0) nf_алла --> –: -0.001135
  (0) nf_алла --> «: -0.001148
  (0) nf_алла --> »: -0.001059
  (0) nf_алла --> (: -0.000917
  (0) nf_алла --> ): -0.000962
  (0) nf_алла --> ..: -0.002008
  (0) suffix3_аны --> CNJ: -0.052061
  (0) suffix3_аны --> PN: 0.052030
  (0) suffix3_аны --> V: -0.202656
  (0) suffix3_аны --> ADJ: -0.186712
  (0) suffix3_аны --> ,: -0.002472
  (0) suffix3_аны --> N: 0.498595
  (0) suffix3_аны --> : -0.002114
  (0) suffix3_аны --> —: -0.003043
  (0) suffix3_аны --> POST: -0.023046
  (0) suffix3_аны --> .: -0.002243
  (0) suffix3_аны --> !: -0.001964
  (0) suffix3_аны --> ?: -0.002345
  (0) suffix3_аны --> HELPVERB: -0.016856
  (0) suffix3_аны --> ADV: -0.012621
  (0) suffix3_аны --> NUM: -0.021666
  (0) suffix3_аны --> ADVVNEG: -0.005517
  (0) suffix3_аны --> ;: -0.003361
  (0) suffix3_аны --> –: -0.002401
  (0) suffix3_аны --> «: -0.001977
  (0) suffix3_аны --> »: -0.001821
  (0) suffix3_аны --> (: -0.001624
  (0) suffix3_аны --> ): -0.001721
  (0) suffix3_аны --> ..: -0.002404
  (0) nf_дошман --> CNJ: -0.014165
  (0) nf_дошман --> PN: -0.053464
  (0) nf_дошман --> V: -0.046206
  (0) nf_дошман --> ADJ: -0.052167
  (0) nf_дошман --> ,: -0.000524
  (0) nf_дошман --> N: 0.187369
  (0) nf_дошман --> : -0.000595
  (0) nf_дошман --> —: -0.000785
  (0) nf_дошман --> POST: -0.005053
  (0) nf_дошман --> .: -0.000408
  (0) nf_дошман --> !: -0.000416
  (0) nf_дошман --> ?: -0.000573
  (0) nf_дошман --> HELPVERB: -0.001297
  (0) nf_дошман --> ADV: -0.002264
  (0) nf_дошман --> NUM: -0.004462
  (0) nf_дошман --> ADVVNEG: -0.001109
  (0) nf_дошман --> ;: -0.000797
  (0) nf_дошман --> –: -0.000510
  (0) nf_дошман --> «: -0.000508
  (0) nf_дошман --> »: -0.000464
  (0) nf_дошман --> (: -0.000420
  (0) nf_дошман --> ): -0.000446
  (0) nf_дошман --> ..: -0.000737
  (0) suffix2_ны --> CNJ: -0.174056
  (0) suffix2_ны --> PN: 0.899602
  (0) suffix2_ны --> V: -0.617828
  (0) suffix2_ны --> ADJ: 0.069882
  (0) suffix2_ны --> ,: -0.007943
  (0) suffix2_ны --> N: 0.144238
  (0) suffix2_ны --> : -0.007409
  (0) suffix2_ны --> —: -0.008722
  (0) suffix2_ны --> POST: -0.071697
  (0) suffix2_ны --> .: -0.006627
  (0) suffix2_ны --> !: -0.006225
  (0) suffix2_ны --> ?: -0.006678
  (0) suffix2_ны --> HELPVERB: -0.033683
  (0) suffix2_ны --> ADV: -0.044598
  (0) suffix2_ны --> NUM: -0.064658
  (0) suffix2_ны --> ADVVNEG: -0.017455
  (0) suffix2_ны --> ;: -0.009278
  (0) suffix2_ны --> –: -0.007234
  (0) suffix2_ны --> «: -0.006177
  (0) suffix2_ны --> »: -0.005702
  (0) suffix2_ны --> (: -0.005099
  (0) suffix2_ны --> ): -0.005409
  (0) suffix2_ны --> ..: -0.007246
  (0) suffix3_кын --> CNJ: 0.232299
  (0) suffix3_кын --> PN: -0.151263
  (0) suffix3_кын --> V: -0.335347
  (0) suffix3_кын --> ADJ: 1.208075
  (0) suffix3_кын --> ,: -0.004724
  (0) suffix3_кын --> N: -0.732749
  (0) suffix3_кын --> : -0.004823
  (0) suffix3_кын --> —: -0.004873
  (0) suffix3_кын --> POST: -0.061084
  (0) suffix3_кын --> .: -0.003294
  (0) suffix3_кын --> !: -0.003572
  (0) suffix3_кын --> ?: -0.003928
  (0) suffix3_кын --> HELPVERB: -0.016500
  (0) suffix3_кын --> ADV: -0.035389
  (0) suffix3_кын --> NUM: -0.045346
  (0) suffix3_кын --> ADVVNEG: -0.010398
  (0) suffix3_кын --> ;: -0.005095
  (0) suffix3_кын --> –: -0.004064
  (0) suffix3_кын --> «: -0.003782
  (0) suffix3_кын --> »: -0.003500
  (0) suffix3_кын --> (: -0.003148
  (0) suffix3_кын --> ): -0.003330
  (0) suffix3_кын --> ..: -0.004164
  (0) nf_якын --> CNJ: 0.352365
  (0) nf_якын --> PN: -0.121732
  (0) nf_якын --> V: -0.182376
  (0) nf_якын --> ADJ: 0.399006
  (0) nf_якын --> ,: -0.003216
  (0) nf_якын --> N: -0.320874
  (0) nf_якын --> : -0.003306
  (0) nf_якын --> —: -0.002497
  (0) nf_якын --> POST: -0.049019
  (0) nf_якын --> .: -0.001772
  (0) nf_якын --> !: -0.001973
  (0) nf_якын --> ?: -0.002313
  (0) nf_якын --> HELPVERB: -0.012217
  (0) nf_якын --> ADV: -0.008184
  (0) nf_якын --> NUM: -0.019608
  (0) nf_якын --> ADVVNEG: -0.006810
  (0) nf_якын --> ;: -0.003115
  (0) nf_якын --> –: -0.002313
  (0) nf_якын --> «: -0.002158
  (0) nf_якын --> »: -0.002028
  (0) nf_якын --> (: -0.001815
  (0) nf_якын --> ): -0.001916
  (0) nf_якын --> ..: -0.002129
  (0) suffix2_ын --> CNJ: 1.033510
  (0) suffix2_ын --> PN: -0.421923
  (0) suffix2_ын --> V: -0.627295
  (0) suffix2_ын --> ADJ: 0.455379
  (0) suffix2_ын --> ,: -0.015112
  (0) suffix2_ын --> N: 0.237193
  (0) suffix2_ын --> : -0.014854
  (0) suffix2_ын --> —: -0.015233
  (0) suffix2_ын --> POST: -0.161229
  (0) suffix2_ын --> .: -0.012244
  (0) suffix2_ын --> !: -0.012341
  (0) suffix2_ын --> ?: -0.012793
  (0) suffix2_ын --> HELPVERB: -0.057179
  (0) suffix2_ын --> ADV: -0.125960
  (0) suffix2_ын --> NUM: -0.121255
  (0) suffix2_ын --> ADVVNEG: -0.040272
  (0) suffix2_ын --> ;: -0.015272
  (0) suffix2_ын --> –: -0.013426
  (0) suffix2_ын --> «: -0.012417
  (0) suffix2_ын --> »: -0.011845
  (0) suffix2_ын --> (: -0.010824
  (0) suffix2_ын --> ): -0.010901
  (0) suffix2_ын --> ..: -0.013709
  (0) suffix3_ткә --> CNJ: -0.015215
  (0) suffix3_ткә --> PN: -0.017986
  (0) suffix3_ткә --> V: -0.091848
  (0) suffix3_ткә --> ADJ: -0.182229
  (0) suffix3_ткә --> ,: -0.001212
  (0) suffix3_ткә --> N: 0.345733
  (0) suffix3_ткә --> : -0.000776
  (0) suffix3_ткә --> —: -0.001265
  (0) suffix3_ткә --> POST: -0.011056
  (0) suffix3_ткә --> .: -0.001480
  (0) suffix3_ткә --> !: -0.001096
  (0) suffix3_ткә --> ?: -0.000771
  (0) suffix3_ткә --> HELPVERB: -0.006449
  (0) suffix3_ткә --> ADV: -0.002258
  (0) suffix3_ткә --> NUM: -0.003962
  (0) suffix3_ткә --> ADVVNEG: -0.001777
  (0) suffix3_ткә --> ;: -0.001610
  (0) suffix3_ткә --> –: -0.001015
  (0) suffix3_ткә --> «: -0.000751
  (0) suffix3_ткә --> »: -0.000721
  (0) suffix3_ткә --> (: -0.000625
  (0) suffix3_ткә --> ): -0.000663
  (0) suffix3_ткә --> ..: -0.000969
  (0) count_11 --> CNJ: -0.223836
  (0) count_11 --> PN: -0.313035
  (0) count_11 --> V: -0.003069
  (0) count_11 --> ADJ: 0.159678
  (0) count_11 --> ,: -0.018090
  (0) count_11 --> N: 0.915608
  (0) count_11 --> : -0.015249
  (0) count_11 --> —: -0.014555
  (0) count_11 --> POST: -0.127697
  (0) count_11 --> .: -0.014750
  (0) count_11 --> !: -0.013580
  (0) count_11 --> ?: -0.012876
  (0) count_11 --> HELPVERB: -0.045365
  (0) count_11 --> ADV: -0.071140
  (0) count_11 --> NUM: -0.084030
  (0) count_11 --> ADVVNEG: -0.027488
  (0) count_11 --> ;: -0.015759
  (0) count_11 --> –: -0.014190
  (0) count_11 --> «: -0.012442
  (0) count_11 --> »: -0.012792
  (0) count_11 --> (: -0.011002
  (0) count_11 --> ): -0.010770
  (0) count_11 --> ..: -0.013571
  (0) nf_мөнәсәбәт --> CNJ: -0.005361
  (0) nf_мөнәсәбәт --> PN: -0.004601
  (0) nf_мөнәсәбәт --> V: -0.026959
  (0) nf_мөнәсәбәт --> ADJ: -0.043427
  (0) nf_мөнәсәбәт --> ,: -0.000371
  (0) nf_мөнәсәбәт --> N: 0.090183
  (0) nf_мөнәсәбәт --> : -0.000225
  (0) nf_мөнәсәбәт --> —: -0.000390
  (0) nf_мөнәсәбәт --> POST: -0.002213
  (0) nf_мөнәсәбәт --> .: -0.000310
  (0) nf_мөнәсәбәт --> !: -0.000295
  (0) nf_мөнәсәбәт --> ?: -0.000247
  (0) nf_мөнәсәбәт --> HELPVERB: -0.001521
  (0) nf_мөнәсәбәт --> ADV: -0.000872
  (0) nf_мөнәсәбәт --> NUM: -0.001003
  (0) nf_мөнәсәбәт --> ADVVNEG: -0.000512
  (0) nf_мөнәсәбәт --> ;: -0.000378
  (0) nf_мөнәсәбәт --> –: -0.000372
  (0) nf_мөнәсәбәт --> «: -0.000240
  (0) nf_мөнәсәбәт --> »: -0.000233
  (0) nf_мөнәсәбәт --> (: -0.000200
  (0) nf_мөнәсәбәт --> ): -0.000212
  (0) nf_мөнәсәбәт --> ..: -0.000241
  (0) suffix2_кә --> CNJ: -0.162606
  (0) suffix2_кә --> PN: -0.128657
  (0) suffix2_кә --> V: -0.598639
  (0) suffix2_кә --> ADJ: 0.603897
  (0) suffix2_кә --> ,: -0.006750
  (0) suffix2_кә --> N: 0.505305
  (0) suffix2_кә --> : -0.005168
  (0) suffix2_кә --> —: -0.007079
  (0) suffix2_кә --> POST: -0.057374
  (0) suffix2_кә --> .: -0.006516
  (0) suffix2_кә --> !: -0.005561
  (0) suffix2_кә --> ?: -0.005050
  (0) suffix2_кә --> HELPVERB: -0.020425
  (0) suffix2_кә --> ADV: -0.032557
  (0) suffix2_кә --> NUM: -0.021955
  (0) suffix2_кә --> ADVVNEG: -0.013247
  (0) suffix2_кә --> ;: -0.008334
  (0) suffix2_кә --> –: -0.006192
  (0) suffix2_кә --> «: -0.004845
  (0) suffix2_кә --> »: -0.004586
  (0) suffix2_кә --> (: -0.004009
  (0) suffix2_кә --> ): -0.004236
  (0) suffix2_кә --> ..: -0.005415
  (0) suffix3_ләр --> CNJ: -0.157098
  (0) suffix3_ләр --> PN: -0.194877
  (0) suffix3_ләр --> V: 0.453348
